
[1] "START INTRAIN"
[1] "=============="
     Resample1
[1,]         1
[2,]         2
[3,]         3
[4,]         4
[5,]         5
[6,]         8
[1] "M1 started"
[1] "M1 complete"
    user   system  elapsed 
1518.892   18.416  243.769 
[1] "M2 started"
[1] "M2 complete"
   user  system elapsed 
581.388  18.056  69.416 
[1] "M3 started"
[1] "M3 complete"
   user  system elapsed 
507.632   1.156 504.673 
[1] "M4 started"
[1] "M4 complete"
   user  system elapsed 
109.144  11.932  15.360 
[1] "M5 started"
[1] "M5 complete"
   user  system elapsed 
309.488   8.224  56.336 
[1] "M6 started"
[1] "M6 complete"
    user   system  elapsed 
2309.644   13.800  427.434 
[1] "M7 started"
[1] "M7 complete"
   user  system elapsed 
442.504  10.304  21.593 
[1] "M8 started"
[1] "M8 complete"
   user  system elapsed 
496.180  12.696  89.283 

[1] "Model engine summary"
[1] "===================="
  Model Type Model Name  Accuracy        Kappa Sensitivity Specificity
1        SVM  svmRadial 0.9663057  0.169158981       0.568   0.9688835
2       tree         rf 0.9916407  0.484166892       0.620   0.9940459
3       tree        J48 0.9739448  0.221549873       0.604   0.9763390
4   bayesian   bayesglm 0.8532884 -0.001916766       0.120   0.8580341
5    cluster        knn 0.9534967  0.148611925       0.680   0.9552668
6       tree   Adaboost 0.9803493  0.303533416       0.688   0.9822413
7       tree      rpart 0.9689292  0.187024022       0.588   0.9713945
8  neuralnet       nnet 0.7311916  0.010014889       0.480   0.7328173
    Precision Recall         F1  Prevalence       AUC      PR-AUC    Cost
1 0.105654762  0.568 0.17816813 0.006430207 0.8653371 0.169126442 243.769
2 0.402597403  0.620 0.48818898 0.006430207 0.8326610 0.587331405  69.416
3 0.141784038  0.604 0.22965779 0.006430207 0.9243126 0.119340479 504.673
4 0.005440696  0.120 0.01040944 0.006430207 0.4917641 0.006301914  15.360
5 0.089567966  0.680 0.15828678 0.006430207 0.9663877 0.302640353  56.336
6 0.200466200  0.688 0.31046931 0.006430207 0.9814789 0.651484373 427.434
7 0.117412141  0.588 0.19573901 0.006430207 0.9198535 0.196785177  21.593
8 0.011493152  0.480 0.02244879 0.006430207 0.7422957 0.014897510  89.283

[1] "Model attribute importance"
[1] "=========================="
                 svmRadial         rf        J48   bayesglm        knn
FOLLOWERS_COUNT  52.093568 100.000000  52.093568  52.093568  52.093568
FRIENDS_COUNT    93.160491  72.786369  93.160491  93.160491  93.160491
LANGUAGE          0.000000  12.195012   0.000000   0.000000   0.000000
LISTED_COUNT      5.363098   4.346587   5.363098   5.363098   5.363098
PROFILE_IMAGE    75.249975   0.000000  75.249975  75.249975  75.249975
STATUS_COUNT    100.000000  89.504869 100.000000 100.000000 100.000000
TIMEZONE         53.119935  86.255308  53.119935  53.119935  53.119935
UTC_OFFSET       88.032560  96.557408  88.032560  88.032560  88.032560
                  Adaboost      rpart      nnet
FOLLOWERS_COUNT  52.093568 100.000000  38.21412
FRIENDS_COUNT    93.160491  77.180763  48.56311
LANGUAGE          0.000000   8.585939  91.61982
LISTED_COUNT      5.363098   1.592313 100.00000
PROFILE_IMAGE    75.249975   0.000000  55.66867
STATUS_COUNT    100.000000  60.431581   0.00000
TIMEZONE         53.119935  81.201261  35.85302
UTC_OFFSET       88.032560  85.908505  36.37902

[1] "Model engine results"
[1] "===================="

[1] "+++++++++++++"
[1] "svmRadial"
[1] "+++++++++++++"
[1] "**** finalModel ****"
Support Vector Machine object of class "ksvm" 

SV type: C-svc  (classification) 
 parameter : cost C = 1 

Gaussian Radial Basis kernel function. 
 Hyperparameter : sigma =  7.80316425597387 

Number of Support Vectors : 1930 

Objective Function Value : -1098.565 
Training error : 0.077143 
Probability model included. 

[1] "**** results ****"
     sigma    C       AUC  Precision    Recall         F      AUCSD PrecisionSD
1 7.803164 0.25 0.1612354 0.08511050 0.5266667 0.1464410 0.03914863  0.01031544
2 7.803164 0.50 0.1857897 0.09468295 0.5604444 0.1618476 0.03907247  0.01223387
3 7.803164 1.00 0.2114164 0.10817367 0.5791111 0.1821502 0.05768238  0.01300178
    RecallSD        FSD
1 0.04873889 0.01678037
2 0.05407341 0.01968938
3 0.05118469 0.02042080

[1] "**** resampledCM ****"
   cell1 cell2 cell3 cell4    sigma    C    Resample
1     45    30   443 11146 7.803164 0.25 Fold01.Rep1
2     47    28   363 11226 7.803164 0.50 Fold01.Rep1
3     47    28   345 11244 7.803164 1.00 Fold01.Rep1
4     38    37   432 11157 7.803164 0.25 Fold02.Rep1
5     41    34   421 11168 7.803164 0.50 Fold02.Rep1
6     41    34   357 11232 7.803164 1.00 Fold02.Rep1
7     40    35   432 11157 7.803164 0.25 Fold03.Rep1
8     41    34   384 11205 7.803164 0.50 Fold03.Rep1
9     43    32   348 11241 7.803164 1.00 Fold03.Rep1
10    33    42   481 11108 7.803164 0.25 Fold04.Rep1
11    35    40   362 11227 7.803164 0.50 Fold04.Rep1
12    38    37   386 11203 7.803164 1.00 Fold04.Rep1
13    41    34   392 11197 7.803164 0.25 Fold05.Rep1
14    44    31   406 11183 7.803164 0.50 Fold05.Rep1
15    44    31   331 11258 7.803164 1.00 Fold05.Rep1
16    39    36   362 11226 7.803164 0.25 Fold06.Rep1
17    39    36   375 11213 7.803164 0.50 Fold06.Rep1
18    40    35   295 11293 7.803164 1.00 Fold06.Rep1
19    41    34   375 11213 7.803164 0.25 Fold07.Rep1
20    45    30   368 11220 7.803164 0.50 Fold07.Rep1
21    46    29   302 11286 7.803164 1.00 Fold07.Rep1
22    37    38   445 11144 7.803164 0.25 Fold08.Rep1
23    41    34   426 11163 7.803164 0.50 Fold08.Rep1
24    44    31   388 11201 7.803164 1.00 Fold08.Rep1
25    40    35   443 11146 7.803164 0.25 Fold09.Rep1
26    44    31   374 11215 7.803164 0.50 Fold09.Rep1
27    45    30   345 11244 7.803164 1.00 Fold09.Rep1
28    39    36   457 11132 7.803164 0.25 Fold10.Rep1
29    43    32   416 11173 7.803164 0.50 Fold10.Rep1
30    46    29   373 11216 7.803164 1.00 Fold10.Rep1
31    42    33   466 11123 7.803164 0.25 Fold01.Rep2
32    43    32   411 11178 7.803164 0.50 Fold01.Rep2
33    46    29   371 11218 7.803164 1.00 Fold01.Rep2
34    35    40   389 11200 7.803164 0.25 Fold02.Rep2
35    36    39   418 11171 7.803164 0.50 Fold02.Rep2
36    37    38   373 11216 7.803164 1.00 Fold02.Rep2
37    37    38   493 11096 7.803164 0.25 Fold03.Rep2
38    39    36   463 11126 7.803164 0.50 Fold03.Rep2
39    40    35   379 11210 7.803164 1.00 Fold03.Rep2
40    32    43   444 11145 7.803164 0.25 Fold04.Rep2
41    34    41   393 11196 7.803164 0.50 Fold04.Rep2
42    37    38   336 11253 7.803164 1.00 Fold04.Rep2
43    37    38   359 11229 7.803164 0.25 Fold05.Rep2
44    41    34   514 11074 7.803164 0.50 Fold05.Rep2
45    42    33   432 11156 7.803164 1.00 Fold05.Rep2
46    41    34   414 11174 7.803164 0.25 Fold06.Rep2
47    49    26   391 11197 7.803164 0.50 Fold06.Rep2
48    51    24   332 11256 7.803164 1.00 Fold06.Rep2
49    45    30   377 11212 7.803164 0.25 Fold07.Rep2
50    47    28   378 11211 7.803164 0.50 Fold07.Rep2
51    48    27   366 11223 7.803164 1.00 Fold07.Rep2
52    48    27   411 11178 7.803164 0.25 Fold08.Rep2
53    49    26   345 11244 7.803164 0.50 Fold08.Rep2
54    50    25   312 11277 7.803164 1.00 Fold08.Rep2
55    40    35   402 11187 7.803164 0.25 Fold09.Rep2
56    41    34   407 11182 7.803164 0.50 Fold09.Rep2
57    43    32   431 11158 7.803164 1.00 Fold09.Rep2
58    41    34   470 11119 7.803164 0.25 Fold10.Rep2
59    42    33   412 11177 7.803164 0.50 Fold10.Rep2
60    42    33   360 11229 7.803164 1.00 Fold10.Rep2
61    44    31   460 11129 7.803164 0.25 Fold01.Rep3
62    50    25   441 11148 7.803164 0.50 Fold01.Rep3
63    51    24   383 11206 7.803164 1.00 Fold01.Rep3
64    36    39   459 11129 7.803164 0.25 Fold02.Rep3
65    39    36   373 11215 7.803164 0.50 Fold02.Rep3
66    43    32   364 11224 7.803164 1.00 Fold02.Rep3
67    43    32   420 11169 7.803164 0.25 Fold03.Rep3
68    46    29   391 11198 7.803164 0.50 Fold03.Rep3
69    47    28   346 11243 7.803164 1.00 Fold03.Rep3
70    37    38   446 11143 7.803164 0.25 Fold04.Rep3
71    37    38   402 11187 7.803164 0.50 Fold04.Rep3
72    38    37   342 11247 7.803164 1.00 Fold04.Rep3
73    35    40   394 11194 7.803164 0.25 Fold05.Rep3
74    40    35   414 11174 7.803164 0.50 Fold05.Rep3
75    40    35   366 11222 7.803164 1.00 Fold05.Rep3
76    39    36   462 11127 7.803164 0.25 Fold06.Rep3
77    42    33   424 11165 7.803164 0.50 Fold06.Rep3
78    43    32   394 11195 7.803164 1.00 Fold06.Rep3
79    40    35   406 11183 7.803164 0.25 Fold07.Rep3
80    42    33   416 11173 7.803164 0.50 Fold07.Rep3
81    44    31   409 11180 7.803164 1.00 Fold07.Rep3
82    36    39   424 11165 7.803164 0.25 Fold08.Rep3
83    38    37   371 11218 7.803164 0.50 Fold08.Rep3
84    40    35   352 11237 7.803164 1.00 Fold08.Rep3
85    43    32   419 11170 7.803164 0.25 Fold09.Rep3
86    44    31   546 11043 7.803164 0.50 Fold09.Rep3
87    44    31   347 11242 7.803164 1.00 Fold09.Rep3
88    41    34   442 11147 7.803164 0.25 Fold10.Rep3
89    42    33   355 11234 7.803164 0.50 Fold10.Rep3
90    43    32   351 11238 7.803164 1.00 Fold10.Rep3

[1] "**** resample ****"
         AUC  Precision    Recall         F    Resample
1  0.2315048 0.10997442 0.5733333 0.1845494 Fold03.Rep1
2  0.2643466 0.10301508 0.5466667 0.1733615 Fold02.Rep1
3  0.2737993 0.11989796 0.6266667 0.2012848 Fold01.Rep1
4  0.1277374 0.08962264 0.5066667 0.1523046 Fold04.Rep1
5  0.1330631 0.09546539 0.5333333 0.1619433 Fold03.Rep2
6  0.1856347 0.11538462 0.6000000 0.1935484 Fold09.Rep1
7  0.2907424 0.11733333 0.5866667 0.1955556 Fold05.Rep1
8  0.1443474 0.09919571 0.4933333 0.1651786 Fold04.Rep2
9  0.1812162 0.10978520 0.6133333 0.1862348 Fold10.Rep1
10 0.2149674 0.11940299 0.5333333 0.1951220 Fold06.Rep1
11 0.2043327 0.08860759 0.5600000 0.1530055 Fold05.Rep2
12 0.3589163 0.11031175 0.6133333 0.1869919 Fold01.Rep2
13 0.3212676 0.13218391 0.6133333 0.2174941 Fold07.Rep1
14 0.2736978 0.13315927 0.6800000 0.2227074 Fold06.Rep2
15 0.1958787 0.09024390 0.4933333 0.1525773 Fold02.Rep2
16 0.1356147 0.10185185 0.5866667 0.1735700 Fold08.Rep1
17 0.2225507 0.11594203 0.6400000 0.1963190 Fold07.Rep2
18 0.1035827 0.09839817 0.5733333 0.1679688 Fold06.Rep3
19 0.1837871 0.10565111 0.5733333 0.1784232 Fold02.Rep3
20 0.2341028 0.13812155 0.6666667 0.2288330 Fold08.Rep2
21 0.2086487 0.09713024 0.5866667 0.1666667 Fold07.Rep3
22 0.2295548 0.11959288 0.6266667 0.2008547 Fold03.Rep3
23 0.1701178 0.09071730 0.5733333 0.1566485 Fold09.Rep2
24 0.1612170 0.10204082 0.5333333 0.1713062 Fold08.Rep3
25 0.1800042 0.10000000 0.5066667 0.1670330 Fold04.Rep3
26 0.2471792 0.10447761 0.5600000 0.1761006 Fold10.Rep2
27 0.2105673 0.11253197 0.5866667 0.1888412 Fold09.Rep3
28 0.2276450 0.09852217 0.5333333 0.1663202 Fold05.Rep3
29 0.2145286 0.11751152 0.6800000 0.2003929 Fold01.Rep3
30 0.2119378 0.10913706 0.5733333 0.1833689 Fold10.Rep3


[1] "+++++++++++++"
[1] "rf"
[1] "+++++++++++++"
[1] "**** finalModel ****"

Call:
 randomForest(x = x, y = y, mtry = param$mtry) 
               Type of random forest: classification
                     Number of trees: 500
No. of variables tried at each split: 2

        OOB estimate of  error rate: 5.87%
Confusion matrix:
            deceptive trustworthy class.error
deceptive        1961         289 0.128444444
trustworthy        19        2981 0.006333333

[1] "**** results ****"
  mtry       AUC Precision    Recall         F      AUCSD PrecisionSD
1    2 0.5764453 0.3974318 0.6213333 0.4833876 0.06630299  0.04869672
2    5 0.3077225 0.2055897 0.6808889 0.3037691 0.05045608  0.08904420
3    8 0.2171697 0.1428623 0.7217778 0.2348230 0.05239556  0.04244581
    RecallSD        FSD
1 0.05317217 0.04532866
2 0.07123935 0.08404415
3 0.06491806 0.05846603

[1] "**** resampledCM ****"
   cell1 cell2 cell3 cell4 mtry    Resample
1     49    26    83 11506    2 Fold01.Rep1
2     57    18   211 11378    5 Fold01.Rep1
3     57    18   250 11339    8 Fold01.Rep1
4     49    26    52 11537    2 Fold02.Rep1
5     53    22   229 11360    5 Fold02.Rep1
6     53    22   274 11315    8 Fold02.Rep1
7     47    28    85 11504    2 Fold03.Rep1
8     52    23   218 11371    5 Fold03.Rep1
9     57    18   517 11072    8 Fold03.Rep1
10    41    34    68 11521    2 Fold04.Rep1
11    40    35    74 11515    5 Fold04.Rep1
12    54    21   587 11002    8 Fold04.Rep1
13    47    28    75 11514    2 Fold05.Rep1
14    51    24   176 11413    5 Fold05.Rep1
15    58    17   490 11099    8 Fold05.Rep1
16    46    29    77 11511    2 Fold06.Rep1
17    50    25   217 11371    5 Fold06.Rep1
18    60    15   515 11073    8 Fold06.Rep1
19    47    28    57 11531    2 Fold07.Rep1
20    48    27    53 11535    5 Fold07.Rep1
21    57    18   522 11066    8 Fold07.Rep1
22    47    28    86 11503    2 Fold08.Rep1
23    52    23   333 11256    5 Fold08.Rep1
24    53    22   216 11373    8 Fold08.Rep1
25    47    28    81 11508    2 Fold09.Rep1
26    50    25   242 11347    5 Fold09.Rep1
27    50    25   255 11334    8 Fold09.Rep1
28    46    29    52 11537    2 Fold10.Rep1
29    50    25   244 11345    5 Fold10.Rep1
30    50    25   271 11318    8 Fold10.Rep1
31    48    27    67 11522    2 Fold01.Rep2
32    52    23   227 11362    5 Fold01.Rep2
33    52    23   290 11299    8 Fold01.Rep2
34    42    33    71 11518    2 Fold02.Rep2
35    47    28   225 11364    5 Fold02.Rep2
36    52    23   505 11084    8 Fold02.Rep2
37    46    29    47 11542    2 Fold03.Rep2
38    50    25   204 11385    5 Fold03.Rep2
39    56    19   494 11095    8 Fold03.Rep2
40    41    34    81 11508    2 Fold04.Rep2
41    48    27   243 11346    5 Fold04.Rep2
42    53    22   583 11006    8 Fold04.Rep2
43    45    30    56 11532    2 Fold05.Rep2
44    60    15   494 11094    5 Fold05.Rep2
45    47    28   216 11372    8 Fold05.Rep2
46    51    24    68 11520    2 Fold06.Rep2
47    56    19   211 11377    5 Fold06.Rep2
48    57    18   217 11371    8 Fold06.Rep2
49    52    23    92 11497    2 Fold07.Rep2
50    55    20   233 11356    5 Fold07.Rep2
51    61    14   568 11021    8 Fold07.Rep2
52    55    20    61 11528    2 Fold08.Rep2
53    60    15   242 11347    5 Fold08.Rep2
54    60    15   257 11332    8 Fold08.Rep2
55    43    32    72 11517    2 Fold09.Rep2
56    43    32    57 11532    5 Fold09.Rep2
57    57    18   505 11084    8 Fold09.Rep2
58    43    32    89 11500    2 Fold10.Rep2
59    53    22   491 11098    5 Fold10.Rep2
60    48    27   229 11360    8 Fold10.Rep2
61    57    18    68 11521    2 Fold01.Rep3
62    64    11   508 11081    5 Fold01.Rep3
63    64    11   516 11073    8 Fold01.Rep3
64    45    30    79 11509    2 Fold02.Rep3
65    51    24   206 11382    5 Fold02.Rep3
66    51    24   218 11370    8 Fold02.Rep3
67    53    22    80 11509    2 Fold03.Rep3
68    58    17   219 11370    5 Fold03.Rep3
69    59    16   247 11342    8 Fold03.Rep3
70    41    34    77 11512    2 Fold04.Rep3
71    44    31   214 11375    5 Fold04.Rep3
72    44    31   232 11357    8 Fold04.Rep3
73    43    32    59 11529    2 Fold05.Rep3
74    48    27   234 11354    5 Fold05.Rep3
75    48    27   270 11318    8 Fold05.Rep3
76    45    30    92 11497    2 Fold06.Rep3
77    49    26   361 11228    5 Fold06.Rep3
78    60    15   532 11057    8 Fold06.Rep3
79    48    27    73 11516    2 Fold07.Rep3
80    52    23   230 11359    5 Fold07.Rep3
81    52    23   257 11332    8 Fold07.Rep3
82    46    29    58 11531    2 Fold08.Rep3
83    48    27   199 11390    5 Fold08.Rep3
84    46    29   197 11392    8 Fold08.Rep3
85    44    31    79 11510    2 Fold09.Rep3
86    47    28   242 11347    5 Fold09.Rep3
87    54    21   534 11055    8 Fold09.Rep3
88    44    31    68 11521    2 Fold10.Rep3
89    44    31    71 11518    5 Fold10.Rep3
90    54    21   220 11369    8 Fold10.Rep3

[1] "**** resample ****"
         AUC Precision    Recall         F    Resample
1  0.6227500 0.3712121 0.6533333 0.4734300 Fold01.Rep1
2  0.4910631 0.3761468 0.5466667 0.4456522 Fold04.Rep1
3  0.6004657 0.3560606 0.6266667 0.4541063 Fold03.Rep1
4  0.5635689 0.4851485 0.6533333 0.5568182 Fold02.Rep1
5  0.5893713 0.3852459 0.6266667 0.4771574 Fold05.Rep1
6  0.4769850 0.3360656 0.5466667 0.4162437 Fold04.Rep2
7  0.5558988 0.4693878 0.6133333 0.5317919 Fold10.Rep1
8  0.5593849 0.3739837 0.6133333 0.4646465 Fold06.Rep1
9  0.5849330 0.4455446 0.6000000 0.5113636 Fold05.Rep2
10 0.6142441 0.4173913 0.6400000 0.5052632 Fold01.Rep2
11 0.5891928 0.4519231 0.6266667 0.5251397 Fold07.Rep1
12 0.6675194 0.4285714 0.6800000 0.5257732 Fold06.Rep2
13 0.4847883 0.3716814 0.5600000 0.4468085 Fold02.Rep2
14 0.5966571 0.3533835 0.6266667 0.4519231 Fold08.Rep1
15 0.6392711 0.3611111 0.6933333 0.4748858 Fold07.Rep2
16 0.5636991 0.4946237 0.6133333 0.5476190 Fold03.Rep2
17 0.6144324 0.3671875 0.6266667 0.4630542 Fold09.Rep1
18 0.7134964 0.4741379 0.7333333 0.5759162 Fold08.Rep2
19 0.4952366 0.3966942 0.6400000 0.4897959 Fold07.Rep3
20 0.6511838 0.3984962 0.7066667 0.5096154 Fold03.Rep3
21 0.5627097 0.3739130 0.5733333 0.4526316 Fold09.Rep2
22 0.5685848 0.4423077 0.6133333 0.5139665 Fold08.Rep3
23 0.4862668 0.3474576 0.5466667 0.4248705 Fold04.Rep3
24 0.5367624 0.3257576 0.5733333 0.4154589 Fold10.Rep2
25 0.4871559 0.3577236 0.5866667 0.4444444 Fold09.Rep3
26 0.5206785 0.4215686 0.5733333 0.4858757 Fold05.Rep3
27 0.7492853 0.4560000 0.7600000 0.5700000 Fold01.Rep3
28 0.5793855 0.3928571 0.5866667 0.4705882 Fold10.Rep3
29 0.5602631 0.3284672 0.6000000 0.4245283 Fold06.Rep3
30 0.5681255 0.3629032 0.6000000 0.4522613 Fold02.Rep3


[1] "+++++++++++++"
[1] "J48"
[1] "+++++++++++++"
[1] "**** finalModel ****"
J48 pruned tree
------------------

UTC_OFFSET <= 0.760112
|   FOLLOWERS_COUNT <= -0.143789: trustworthy (315.0/6.0)
|   FOLLOWERS_COUNT > -0.143789
|   |   FOLLOWERS_COUNT <= -0.139407: deceptive (561.0)
|   |   FOLLOWERS_COUNT > -0.139407
|   |   |   STATUS_COUNT <= -0.389167: trustworthy (167.0)
|   |   |   STATUS_COUNT > -0.389167
|   |   |   |   STATUS_COUNT <= 0.010559
|   |   |   |   |   FRIENDS_COUNT <= -0.095831
|   |   |   |   |   |   TIMEZONE <= 0.589018
|   |   |   |   |   |   |   FOLLOWERS_COUNT <= -0.100663
|   |   |   |   |   |   |   |   TIMEZONE <= -0.032467
|   |   |   |   |   |   |   |   |   TIMEZONE <= -0.036172
|   |   |   |   |   |   |   |   |   |   FRIENDS_COUNT <= -0.141396
|   |   |   |   |   |   |   |   |   |   |   FRIENDS_COUNT <= -0.174267
|   |   |   |   |   |   |   |   |   |   |   |   FOLLOWERS_COUNT <= -0.137193
|   |   |   |   |   |   |   |   |   |   |   |   |   STATUS_COUNT <= -0.334088: deceptive (121.0/5.0)
|   |   |   |   |   |   |   |   |   |   |   |   |   STATUS_COUNT > -0.334088: trustworthy (17.0)
|   |   |   |   |   |   |   |   |   |   |   |   FOLLOWERS_COUNT > -0.137193: trustworthy (18.0)
|   |   |   |   |   |   |   |   |   |   |   FRIENDS_COUNT > -0.174267
|   |   |   |   |   |   |   |   |   |   |   |   STATUS_COUNT <= -0.191198: deceptive (438.0/18.0)
|   |   |   |   |   |   |   |   |   |   |   |   STATUS_COUNT > -0.191198
|   |   |   |   |   |   |   |   |   |   |   |   |   FOLLOWERS_COUNT <= -0.137193: trustworthy (12.0)
|   |   |   |   |   |   |   |   |   |   |   |   |   FOLLOWERS_COUNT > -0.137193: deceptive (6.0/1.0)
|   |   |   |   |   |   |   |   |   |   FRIENDS_COUNT > -0.141396
|   |   |   |   |   |   |   |   |   |   |   FRIENDS_COUNT <= -0.122211: deceptive (19.0)
|   |   |   |   |   |   |   |   |   |   |   FRIENDS_COUNT > -0.122211: trustworthy (22.0)
|   |   |   |   |   |   |   |   |   TIMEZONE > -0.036172
|   |   |   |   |   |   |   |   |   |   STATUS_COUNT <= -0.191198: trustworthy (27.0)
|   |   |   |   |   |   |   |   |   |   STATUS_COUNT > -0.191198: deceptive (76.0/8.0)
|   |   |   |   |   |   |   |   TIMEZONE > -0.032467: deceptive (348.0/5.0)
|   |   |   |   |   |   |   FOLLOWERS_COUNT > -0.100663
|   |   |   |   |   |   |   |   FRIENDS_COUNT <= -0.120324: trustworthy (64.0/2.0)
|   |   |   |   |   |   |   |   FRIENDS_COUNT > -0.120324: deceptive (6.0)
|   |   |   |   |   |   TIMEZONE > 0.589018: trustworthy (65.0)
|   |   |   |   |   FRIENDS_COUNT > -0.095831
|   |   |   |   |   |   LANGUAGE <= -0.186359: trustworthy (126.0)
|   |   |   |   |   |   LANGUAGE > -0.186359
|   |   |   |   |   |   |   LANGUAGE <= 0.187552: deceptive (5.0)
|   |   |   |   |   |   |   LANGUAGE > 0.187552: trustworthy (12.0)
|   |   |   |   STATUS_COUNT > 0.010559
|   |   |   |   |   FRIENDS_COUNT <= -0.116002: trustworthy (252.0)
|   |   |   |   |   FRIENDS_COUNT > -0.116002
|   |   |   |   |   |   TIMEZONE <= -0.015711
|   |   |   |   |   |   |   LANGUAGE <= -0.122334: trustworthy (113.0/1.0)
|   |   |   |   |   |   |   LANGUAGE > -0.122334
|   |   |   |   |   |   |   |   FOLLOWERS_COUNT <= -0.038246: trustworthy (3.0)
|   |   |   |   |   |   |   |   FOLLOWERS_COUNT > -0.038246: deceptive (6.0)
|   |   |   |   |   |   TIMEZONE > -0.015711
|   |   |   |   |   |   |   FOLLOWERS_COUNT <= -0.11732: trustworthy (28.0/1.0)
|   |   |   |   |   |   |   FOLLOWERS_COUNT > -0.11732
|   |   |   |   |   |   |   |   FRIENDS_COUNT <= 0.065135: deceptive (177.0/16.0)
|   |   |   |   |   |   |   |   FRIENDS_COUNT > 0.065135
|   |   |   |   |   |   |   |   |   LANGUAGE <= -0.122334: trustworthy (28.0)
|   |   |   |   |   |   |   |   |   LANGUAGE > -0.122334
|   |   |   |   |   |   |   |   |   |   FOLLOWERS_COUNT <= 0.070056: trustworthy (3.0/1.0)
|   |   |   |   |   |   |   |   |   |   FOLLOWERS_COUNT > 0.070056: deceptive (65.0/1.0)
UTC_OFFSET > 0.760112
|   LISTED_COUNT <= 0.137073
|   |   FOLLOWERS_COUNT <= 0.02396
|   |   |   UTC_OFFSET <= 0.916236
|   |   |   |   STATUS_COUNT <= -0.389167: trustworthy (961.0/276.0)
|   |   |   |   STATUS_COUNT > -0.389167
|   |   |   |   |   FOLLOWERS_COUNT <= -0.119635: trustworthy (577.0/7.0)
|   |   |   |   |   FOLLOWERS_COUNT > -0.119635
|   |   |   |   |   |   TIMEZONE <= 0.082313: trustworthy (57.0)
|   |   |   |   |   |   TIMEZONE > 0.082313
|   |   |   |   |   |   |   STATUS_COUNT <= -0.003856: trustworthy (27.0)
|   |   |   |   |   |   |   STATUS_COUNT > -0.003856
|   |   |   |   |   |   |   |   STATUS_COUNT <= 0.568546: deceptive (74.0/7.0)
|   |   |   |   |   |   |   |   STATUS_COUNT > 0.568546: trustworthy (8.0)
|   |   |   UTC_OFFSET > 0.916236: trustworthy (221.0)
|   |   FOLLOWERS_COUNT > 0.02396
|   |   |   STATUS_COUNT <= 0.471018: trustworthy (63.0)
|   |   |   STATUS_COUNT > 0.471018
|   |   |   |   UTC_OFFSET <= 0.760765: trustworthy (12.0)
|   |   |   |   UTC_OFFSET > 0.760765
|   |   |   |   |   FRIENDS_COUNT <= -0.05965: trustworthy (6.0)
|   |   |   |   |   FRIENDS_COUNT > -0.05965
|   |   |   |   |   |   FRIENDS_COUNT <= 0.525966: deceptive (64.0)
|   |   |   |   |   |   FRIENDS_COUNT > 0.525966
|   |   |   |   |   |   |   LANGUAGE <= 3.221578: trustworthy (3.0)
|   |   |   |   |   |   |   LANGUAGE > 3.221578: deceptive (3.0)
|   LISTED_COUNT > 0.137073
|   |   LANGUAGE <= 0.284115: trustworthy (22.0)
|   |   LANGUAGE > 0.284115
|   |   |   FRIENDS_COUNT <= 0.106202: trustworthy (4.0)
|   |   |   FRIENDS_COUNT > 0.106202: deceptive (48.0)

Number of Leaves  : 	45

Size of the tree : 	89


[1] "**** results ****"
      C M       AUC Precision    Recall         F      AUCSD PrecisionSD
1 0.010 1 0.1311009 0.1754896 0.6106667 0.2705654 0.03294806  0.03993138
2 0.010 2 0.1345263 0.1807827 0.6057778 0.2770467 0.04167252  0.03928721
3 0.010 3 0.1385864 0.1665807 0.6133333 0.2593873 0.04625162  0.03936564
4 0.255 1 0.1196227 0.1589292 0.6586667 0.2511666 0.03358124  0.05082115
5 0.255 2 0.1268035 0.1642456 0.6528889 0.2551680 0.03730940  0.05894572
6 0.255 3 0.1245597 0.1488127 0.6497778 0.2367642 0.04192022  0.05267355
7 0.500 1 0.1059608 0.1276681 0.6964444 0.2105848 0.03171996  0.04669415
8 0.500 2 0.1203465 0.1509114 0.6608889 0.2412805 0.03990485  0.04259952
9 0.500 3 0.1348942 0.1315985 0.6884444 0.2148968 0.02812653  0.05194613
    RecallSD        FSD
1 0.05518621 0.04954377
2 0.05876724 0.05047597
3 0.05401859 0.05072212
4 0.05886279 0.06466808
5 0.07076881 0.07198626
6 0.07141124 0.06654823
7 0.08012889 0.05990693
8 0.07897297 0.05118155
9 0.07707156 0.06843446

[1] "**** resampledCM ****"
    cell1 cell2 cell3 cell4     C M    Resample
1      48    27   192 11397 0.010 1 Fold01.Rep1
2      56    19   301 11288 0.255 1 Fold01.Rep1
3      57    18   328 11261 0.500 1 Fold01.Rep1
4      47    28   259 11330 0.010 2 Fold01.Rep1
5      49    26   146 11443 0.255 2 Fold01.Rep1
6      57    18   375 11214 0.500 2 Fold01.Rep1
7      49    26   205 11384 0.010 3 Fold01.Rep1
8      49    26   158 11431 0.255 3 Fold01.Rep1
9      49    26   247 11342 0.500 3 Fold01.Rep1
10     46    29   240 11349 0.010 1 Fold02.Rep1
11     52    23   462 11127 0.255 1 Fold02.Rep1
12     61    14   582 11007 0.500 1 Fold02.Rep1
13     47    28   229 11360 0.010 2 Fold02.Rep1
14     46    29   191 11398 0.255 2 Fold02.Rep1
15     53    22   301 11288 0.500 2 Fold02.Rep1
16     47    28   270 11319 0.010 3 Fold02.Rep1
17     47    28   185 11404 0.255 3 Fold02.Rep1
18     48    27   159 11430 0.500 3 Fold02.Rep1
19     46    29   288 11301 0.010 1 Fold03.Rep1
20     57    18   674 10915 0.255 1 Fold03.Rep1
21     57    18   684 10905 0.500 1 Fold03.Rep1
22     46    29   218 11371 0.010 2 Fold03.Rep1
23     47    28   166 11423 0.255 2 Fold03.Rep1
24     47    28   190 11399 0.500 2 Fold03.Rep1
25     46    29   175 11414 0.010 3 Fold03.Rep1
26     46    29   159 11430 0.255 3 Fold03.Rep1
27     52    23   341 11248 0.500 3 Fold03.Rep1
28     41    34   268 11321 0.010 1 Fold04.Rep1
29     39    36   149 11440 0.255 1 Fold04.Rep1
30     39    36   206 11383 0.500 1 Fold04.Rep1
31     38    37   223 11366 0.010 2 Fold04.Rep1
32     41    34   133 11456 0.255 2 Fold04.Rep1
33     41    34   166 11423 0.500 2 Fold04.Rep1
34     39    36   226 11363 0.010 3 Fold04.Rep1
35     50    25   421 11168 0.255 3 Fold04.Rep1
36     51    24   681 10908 0.500 3 Fold04.Rep1
37     45    30   148 11441 0.010 1 Fold05.Rep1
38     50    25   315 11274 0.255 1 Fold05.Rep1
39     57    18   588 11001 0.500 1 Fold05.Rep1
40     44    31   165 11424 0.010 2 Fold05.Rep1
41     58    17   644 10945 0.255 2 Fold05.Rep1
42     47    28   135 11454 0.500 2 Fold05.Rep1
43     47    28   186 11403 0.010 3 Fold05.Rep1
44     47    28   387 11202 0.255 3 Fold05.Rep1
45     51    24   335 11254 0.500 3 Fold05.Rep1
46     44    31   196 11392 0.010 1 Fold06.Rep1
47     48    27   386 11202 0.255 1 Fold06.Rep1
48     48    27   305 11283 0.500 1 Fold06.Rep1
49     44    31   259 11329 0.010 2 Fold06.Rep1
50     48    27   377 11211 0.255 2 Fold06.Rep1
51     44    31   155 11433 0.500 2 Fold06.Rep1
52     43    32   164 11424 0.010 3 Fold06.Rep1
53     50    25   371 11217 0.255 3 Fold06.Rep1
54     44    31   179 11409 0.500 3 Fold06.Rep1
55     45    30   214 11374 0.010 1 Fold07.Rep1
56     47    28   175 11413 0.255 1 Fold07.Rep1
57     57    18   586 11002 0.500 1 Fold07.Rep1
58     45    30   219 11369 0.010 2 Fold07.Rep1
59     51    24   357 11231 0.255 2 Fold07.Rep1
60     51    24   330 11258 0.500 2 Fold07.Rep1
61     49    26   379 11209 0.010 3 Fold07.Rep1
62     46    29   154 11434 0.255 3 Fold07.Rep1
63     56    19   603 10985 0.500 3 Fold07.Rep1
64     47    28   280 11309 0.010 1 Fold08.Rep1
65     46    29   171 11418 0.255 1 Fold08.Rep1
66     58    17   621 10968 0.500 1 Fold08.Rep1
67     46    29   225 11364 0.010 2 Fold08.Rep1
68     45    30   178 11411 0.255 2 Fold08.Rep1
69     53    22   332 11257 0.500 2 Fold08.Rep1
70     46    29   169 11420 0.010 3 Fold08.Rep1
71     47    28   245 11344 0.255 3 Fold08.Rep1
72     46    29   196 11393 0.500 3 Fold08.Rep1
73     47    28   147 11442 0.010 1 Fold09.Rep1
74     50    25   325 11264 0.255 1 Fold09.Rep1
75     49    26   342 11247 0.500 1 Fold09.Rep1
76     47    28   173 11416 0.010 2 Fold09.Rep1
77     47    28   195 11394 0.255 2 Fold09.Rep1
78     49    26   325 11264 0.500 2 Fold09.Rep1
79     47    28   318 11271 0.010 3 Fold09.Rep1
80     50    25   358 11231 0.255 3 Fold09.Rep1
81     50    25   340 11249 0.500 3 Fold09.Rep1
82     46    29   235 11354 0.010 1 Fold10.Rep1
83     46    29   161 11428 0.255 1 Fold10.Rep1
84     49    26   323 11266 0.500 1 Fold10.Rep1
85     46    29   174 11415 0.010 2 Fold10.Rep1
86     45    30   178 11411 0.255 2 Fold10.Rep1
87     49    26   322 11267 0.500 2 Fold10.Rep1
88     44    31   187 11402 0.010 3 Fold10.Rep1
89     49    26   361 11228 0.255 3 Fold10.Rep1
90     61    14   668 10921 0.500 3 Fold10.Rep1
91     47    28   210 11379 0.010 1 Fold01.Rep2
92     46    29   182 11407 0.255 1 Fold01.Rep2
93     62    13   633 10956 0.500 1 Fold01.Rep2
94     46    29   180 11409 0.010 2 Fold01.Rep2
95     51    24   342 11247 0.255 2 Fold01.Rep2
96     50    25   323 11266 0.500 2 Fold01.Rep2
97     45    30   240 11349 0.010 3 Fold01.Rep2
98     50    25   351 11238 0.255 3 Fold01.Rep2
99     63    12   652 10937 0.500 3 Fold01.Rep2
100    41    34   214 11375 0.010 1 Fold02.Rep2
101    46    29   287 11302 0.255 1 Fold02.Rep2
102    52    23   564 11025 0.500 1 Fold02.Rep2
103    41    34   269 11320 0.010 2 Fold02.Rep2
104    46    29   292 11297 0.255 2 Fold02.Rep2
105    42    33   430 11159 0.500 2 Fold02.Rep2
106    41    34   224 11365 0.010 3 Fold02.Rep2
107    53    22   649 10940 0.255 3 Fold02.Rep2
108    42    33   171 11418 0.500 3 Fold02.Rep2
109    49    26   391 11198 0.010 1 Fold03.Rep2
110    45    30   187 11402 0.255 1 Fold03.Rep2
111    43    32   214 11375 0.500 1 Fold03.Rep2
112    42    33   231 11358 0.010 2 Fold03.Rep2
113    43    32   126 11463 0.255 2 Fold03.Rep2
114    42    33   160 11429 0.500 2 Fold03.Rep2
115    52    23   528 11061 0.010 3 Fold03.Rep2
116    42    33   227 11362 0.255 3 Fold03.Rep2
117    55    20   547 11042 0.500 3 Fold03.Rep2
118    38    37   219 11370 0.010 1 Fold04.Rep2
119    46    29   328 11261 0.255 1 Fold04.Rep2
120    52    23   722 10867 0.500 1 Fold04.Rep2
121    39    36   161 11428 0.010 2 Fold04.Rep2
122    40    35   169 11420 0.255 2 Fold04.Rep2
123    46    29   401 11188 0.500 2 Fold04.Rep2
124    47    28   520 11069 0.010 3 Fold04.Rep2
125    41    34   170 11419 0.255 3 Fold04.Rep2
126    51    24   630 10959 0.500 3 Fold04.Rep2
127    44    31   181 11407 0.010 1 Fold05.Rep2
128    48    27   300 11288 0.255 1 Fold05.Rep2
129    44    31   127 11461 0.500 1 Fold05.Rep2
130    44    31   137 11451 0.010 2 Fold05.Rep2
131    44    31   126 11462 0.255 2 Fold05.Rep2
132    44    31   146 11442 0.500 2 Fold05.Rep2
133    44    31   182 11406 0.010 3 Fold05.Rep2
134    47    28   298 11290 0.255 3 Fold05.Rep2
135    45    30   220 11368 0.500 3 Fold05.Rep2
136    50    25   220 11368 0.010 1 Fold06.Rep2
137    51    24   165 11423 0.255 1 Fold06.Rep2
138    55    20   342 11246 0.500 1 Fold06.Rep2
139    51    24   132 11456 0.010 2 Fold06.Rep2
140    56    19   533 11055 0.255 2 Fold06.Rep2
141    54    21   331 11257 0.500 2 Fold06.Rep2
142    51    24   157 11431 0.010 3 Fold06.Rep2
143    51    24   183 11405 0.255 3 Fold06.Rep2
144    51    24   153 11435 0.500 3 Fold06.Rep2
145    52    23   297 11292 0.010 1 Fold07.Rep2
146    55    20   316 11273 0.255 1 Fold07.Rep2
147    52    23   164 11425 0.500 1 Fold07.Rep2
148    52    23   217 11372 0.010 2 Fold07.Rep2
149    52    23   161 11428 0.255 2 Fold07.Rep2
150    55    20   357 11232 0.500 2 Fold07.Rep2
151    50    25   215 11374 0.010 3 Fold07.Rep2
152    54    21   362 11227 0.255 3 Fold07.Rep2
153    61    14   687 10902 0.500 3 Fold07.Rep2
154    55    20   185 11404 0.010 1 Fold08.Rep2
155    55    20   193 11396 0.255 1 Fold08.Rep2
156    60    15   355 11234 0.500 1 Fold08.Rep2
157    55    20   190 11399 0.010 2 Fold08.Rep2
158    60    15   371 11218 0.255 2 Fold08.Rep2
159    60    15   352 11237 0.500 2 Fold08.Rep2
160    50    25   261 11328 0.010 3 Fold08.Rep2
161    55    20   152 11437 0.255 3 Fold08.Rep2
162    55    20   211 11378 0.500 3 Fold08.Rep2
163    43    32   252 11337 0.010 1 Fold09.Rep2
164    57    18   695 10894 0.255 1 Fold09.Rep2
165    51    24   395 11194 0.500 1 Fold09.Rep2
166    43    32   189 11400 0.010 2 Fold09.Rep2
167    57    18   627 10962 0.255 2 Fold09.Rep2
168    43    32   246 11343 0.500 2 Fold09.Rep2
169    43    32   236 11353 0.010 3 Fold09.Rep2
170    40    35   289 11300 0.255 3 Fold09.Rep2
171    51    24   393 11196 0.500 3 Fold09.Rep2
172    43    32   260 11329 0.010 1 Fold10.Rep2
173    48    27   315 11274 0.255 1 Fold10.Rep2
174    53    22   575 11014 0.500 1 Fold10.Rep2
175    42    33   289 11300 0.010 2 Fold10.Rep2
176    53    22   588 11001 0.255 2 Fold10.Rep2
177    48    27   312 11277 0.500 2 Fold10.Rep2
178    43    32   168 11421 0.010 3 Fold10.Rep2
179    43    32   225 11364 0.255 3 Fold10.Rep2
180    52    23   713 10876 0.500 3 Fold10.Rep2
181    57    18   216 11373 0.010 1 Fold01.Rep3
182    57    18   322 11267 0.255 1 Fold01.Rep3
183    57    18   332 11257 0.500 1 Fold01.Rep3
184    57    18   167 11422 0.010 2 Fold01.Rep3
185    58    17   314 11275 0.255 2 Fold01.Rep3
186    59    16   348 11241 0.500 2 Fold01.Rep3
187    57    18   210 11379 0.010 3 Fold01.Rep3
188    57    18   376 11213 0.255 3 Fold01.Rep3
189    57    18   404 11185 0.500 3 Fold01.Rep3
190    44    31   271 11317 0.010 1 Fold02.Rep3
191    51    24   290 11298 0.255 1 Fold02.Rep3
192    57    18   682 10906 0.500 1 Fold02.Rep3
193    43    32   346 11242 0.010 2 Fold02.Rep3
194    50    25   311 11277 0.255 2 Fold02.Rep3
195    45    30   208 11380 0.500 2 Fold02.Rep3
196    45    30   309 11279 0.010 3 Fold02.Rep3
197    50    25   369 11219 0.255 3 Fold02.Rep3
198    51    24   361 11227 0.500 3 Fold02.Rep3
199    50    25   160 11429 0.010 1 Fold03.Rep3
200    51    24   174 11415 0.255 1 Fold03.Rep3
201    56    19   366 11223 0.500 1 Fold03.Rep3
202    51    24   180 11409 0.010 2 Fold03.Rep3
203    50    25   138 11451 0.255 2 Fold03.Rep3
204    62    13   647 10942 0.500 2 Fold03.Rep3
205    52    23   301 11288 0.010 3 Fold03.Rep3
206    63    12   606 10983 0.255 3 Fold03.Rep3
207    63    12   591 10998 0.500 3 Fold03.Rep3
208    41    34   263 11326 0.010 1 Fold04.Rep3
209    49    26   631 10958 0.255 1 Fold04.Rep3
210    44    31   283 11306 0.500 1 Fold04.Rep3
211    39    36   202 11387 0.010 2 Fold04.Rep3
212    42    33   276 11313 0.255 2 Fold04.Rep3
213    43    32   287 11302 0.500 2 Fold04.Rep3
214    40    35   191 11398 0.010 3 Fold04.Rep3
215    42    33   312 11277 0.255 3 Fold04.Rep3
216    49    26   663 10926 0.500 3 Fold04.Rep3
217    42    33   144 11444 0.010 1 Fold05.Rep3
218    47    28   330 11258 0.255 1 Fold05.Rep3
219    48    27   346 11242 0.500 1 Fold05.Rep3
220    42    33   245 11343 0.010 2 Fold05.Rep3
221    48    27   366 11222 0.255 2 Fold05.Rep3
222    48    27   304 11284 0.500 2 Fold05.Rep3
223    42    33   161 11427 0.010 3 Fold05.Rep3
224    48    27   458 11130 0.255 3 Fold05.Rep3
225    43    32   193 11395 0.500 3 Fold05.Rep3
226    44    31   213 11376 0.010 1 Fold06.Rep3
227    45    30   207 11382 0.255 1 Fold06.Rep3
228    59    16   612 10977 0.500 1 Fold06.Rep3
229    44    31   220 11369 0.010 2 Fold06.Rep3
230    45    30   228 11361 0.255 2 Fold06.Rep3
231    56    19   342 11247 0.500 2 Fold06.Rep3
232    44    31   213 11376 0.010 3 Fold06.Rep3
233    59    16   728 10861 0.255 3 Fold06.Rep3
234    57    18   663 10926 0.500 3 Fold06.Rep3
235    48    27   208 11381 0.010 1 Fold07.Rep3
236    48    27   132 11457 0.255 1 Fold07.Rep3
237    52    23   362 11227 0.500 1 Fold07.Rep3
238    48    27   221 11368 0.010 2 Fold07.Rep3
239    51    24   358 11231 0.255 2 Fold07.Rep3
240    52    23   382 11207 0.500 2 Fold07.Rep3
241    48    27   222 11367 0.010 3 Fold07.Rep3
242    52    23   399 11190 0.255 3 Fold07.Rep3
243    51    24   400 11189 0.500 3 Fold07.Rep3
244    43    32   329 11260 0.010 1 Fold08.Rep3
245    45    30   273 11316 0.255 1 Fold08.Rep3
246    47    28   255 11334 0.500 1 Fold08.Rep3
247    46    29   237 11352 0.010 2 Fold08.Rep3
248    48    27   304 11285 0.255 2 Fold08.Rep3
249    46    29   279 11310 0.500 2 Fold08.Rep3
250    41    34   262 11327 0.010 3 Fold08.Rep3
251    43    32   142 11447 0.255 3 Fold08.Rep3
252    43    32   269 11320 0.500 3 Fold08.Rep3
253    44    31   230 11359 0.010 1 Fold09.Rep3
254    47    28   314 11275 0.255 1 Fold09.Rep3
255    47    28   365 11224 0.500 1 Fold09.Rep3
256    44    31   280 11309 0.010 2 Fold09.Rep3
257    54    21   647 10942 0.255 2 Fold09.Rep3
258    44    31   174 11415 0.500 2 Fold09.Rep3
259    44    31   314 11275 0.010 3 Fold09.Rep3
260    47    28   394 11195 0.255 3 Fold09.Rep3
261    47    28   380 11209 0.500 3 Fold09.Rep3
262    44    31   124 11465 0.010 1 Fold10.Rep3
263    54    21   310 11279 0.255 1 Fold10.Rep3
264    44    31   164 11425 0.500 1 Fold10.Rep3
265    44    31   191 11398 0.010 2 Fold10.Rep3
266    44    31   199 11390 0.255 2 Fold10.Rep3
267    57    18   594 10995 0.500 2 Fold10.Rep3
268    44    31   279 11310 0.010 3 Fold10.Rep3
269    44    31   224 11365 0.255 3 Fold10.Rep3
270    54    21   295 11294 0.500 3 Fold10.Rep3

[1] "**** resample ****"
          AUC  Precision    Recall         F    Resample
1  0.14384834 0.17120623 0.5866667 0.2650602 Fold06.Rep3
2  0.11209779 0.12711864 0.6000000 0.2097902 Fold02.Rep3
3  0.12838812 0.17777778 0.6400000 0.2782609 Fold07.Rep3
4  0.15659800 0.18867925 0.6666667 0.2941176 Fold07.Rep2
5  0.18931913 0.16077170 0.6666667 0.2590674 Fold08.Rep2
6  0.11924326 0.14730878 0.6933333 0.2429907 Fold03.Rep3
7  0.07957226 0.08965517 0.6933333 0.1587786 Fold03.Rep2
8  0.07911897 0.08289242 0.6266667 0.1464174 Fold04.Rep2
9  0.11325172 0.15412186 0.5733333 0.2429379 Fold09.Rep2
10 0.10907559 0.13531353 0.5466667 0.2169312 Fold08.Rep3
11 0.09552873 0.12876712 0.6266667 0.2136364 Fold09.Rep1
12 0.17436919 0.19047619 0.5866667 0.2875817 Fold10.Rep1
13 0.16588211 0.19469027 0.5866667 0.2923588 Fold05.Rep2
14 0.11235259 0.17316017 0.5333333 0.2614379 Fold04.Rep3
15 0.11893090 0.14716981 0.5200000 0.2294118 Fold04.Rep1
16 0.13509219 0.20772947 0.5733333 0.3049645 Fold06.Rep1
17 0.19538392 0.15789474 0.6000000 0.2500000 Fold01.Rep2
18 0.17543207 0.20379147 0.5733333 0.3006993 Fold10.Rep2
19 0.08293261 0.12290503 0.5866667 0.2032333 Fold09.Rep3
20 0.14171298 0.20171674 0.6266667 0.3051948 Fold05.Rep1
21 0.21666196 0.11448598 0.6533333 0.1948310 Fold07.Rep1
22 0.22643410 0.24519231 0.6800000 0.3604240 Fold06.Rep2
23 0.19651031 0.20689655 0.5600000 0.3021583 Fold05.Rep3
24 0.09245894 0.19291339 0.6533333 0.2978723 Fold01.Rep1
25 0.08412350 0.20814480 0.6133333 0.3108108 Fold03.Rep1
26 0.11649950 0.15471698 0.5466667 0.2411765 Fold02.Rep2
27 0.24296288 0.21348315 0.7600000 0.3333333 Fold01.Rep3
28 0.10461795 0.13622291 0.5866667 0.2211055 Fold10.Rep3
29 0.15246150 0.14826498 0.6266667 0.2397959 Fold02.Rep1
30 0.09672965 0.21395349 0.6133333 0.3172414 Fold08.Rep1


[1] "+++++++++++++"
[1] "bayesglm"
[1] "+++++++++++++"
[1] "**** finalModel ****"
NULL
                coef.est coef.se
(Intercept)      0.30     0.03  
PROFILE_IMAGE    0.10     0.06  
LANGUAGE         0.04     0.03  
FRIENDS_COUNT   -0.03     0.04  
FOLLOWERS_COUNT  0.09     0.06  
STATUS_COUNT     0.14     0.04  
LISTED_COUNT    -0.07     0.04  
TIMEZONE        -0.04     0.03  
UTC_OFFSET       0.24     0.03  
---
n = 5250, k = 9
residual deviance = 7065.5, null deviance = 7170.5 (difference = 105.0)

[1] "**** results ****"
  parameter         AUC   Precision    Recall          F        AUCSD
1      none 0.006711145 0.005699977 0.1315556 0.01091436 0.0005361535
  PrecisionSD   RecallSD        FSD
1 0.001400331 0.03496833 0.00266145

[1] "**** resampledCM ****"
   cell1 cell2 cell3 cell4 parameter    Resample
1      9    66  2102  9487      none Fold01.Rep1
2      9    66  1510 10079      none Fold02.Rep1
3     14    61  1937  9652      none Fold03.Rep1
4      9    66  1355 10234      none Fold04.Rep1
5      6    69  1573 10016      none Fold05.Rep1
6      7    68  2052  9536      none Fold06.Rep1
7     12    63  1859  9729      none Fold07.Rep1
8      9    66  1590  9999      none Fold08.Rep1
9     11    64  1402 10187      none Fold09.Rep1
10    10    65  1531 10058      none Fold10.Rep1
11     9    66  1499 10090      none Fold01.Rep2
12     9    66  1295 10294      none Fold02.Rep2
13     8    67  1870  9719      none Fold03.Rep2
14    11    64  1973  9616      none Fold04.Rep2
15     6    69  1654  9934      none Fold05.Rep2
16     8    67  1506 10082      none Fold06.Rep2
17    12    63  2068  9521      none Fold07.Rep2
18    15    60  1777  9812      none Fold08.Rep2
19     7    68  1593  9996      none Fold09.Rep2
20    14    61  1939  9650      none Fold10.Rep2
21    16    59  2378  9211      none Fold01.Rep3
22     7    68  1540 10048      none Fold02.Rep3
23     7    68  2251  9338      none Fold03.Rep3
24    11    64  2067  9522      none Fold04.Rep3
25     8    67  1822  9766      none Fold05.Rep3
26    12    63  2205  9384      none Fold06.Rep3
27     8    67  1454 10135      none Fold07.Rep3
28    11    64  1553 10036      none Fold08.Rep3
29    10    65  1518 10071      none Fold09.Rep3
30    11    64  1394 10195      none Fold10.Rep3

[1] "**** resample ****"
           AUC   Precision     Recall           F    Resample
1  0.006730193 0.004263382 0.12000000 0.008234218 Fold01.Rep1
2  0.006944050 0.005924951 0.12000000 0.011292346 Fold02.Rep1
3  0.007245555 0.007175807 0.18666667 0.013820336 Fold03.Rep1
4  0.006176011 0.006598240 0.12000000 0.012508687 Fold04.Rep1
5  0.006158836 0.003799873 0.08000000 0.007255139 Fold05.Rep1
6  0.006019663 0.003399709 0.09333333 0.006560450 Fold06.Rep1
7  0.007046621 0.006413683 0.16000000 0.012332991 Fold07.Rep1
8  0.006856657 0.005628518 0.12000000 0.010752688 Fold08.Rep1
9  0.006931172 0.007784855 0.14666667 0.014784946 Fold09.Rep1
10 0.007002566 0.006489293 0.13333333 0.012376238 Fold10.Rep1
11 0.007216447 0.005968170 0.12000000 0.011370815 Fold01.Rep2
12 0.006704439 0.006901840 0.12000000 0.013052937 Fold02.Rep2
13 0.006924964 0.004259851 0.10666667 0.008192524 Fold03.Rep2
14 0.006140601 0.005544355 0.14666667 0.010684798 Fold04.Rep2
15 0.006271934 0.003614458 0.08000000 0.006916427 Fold05.Rep2
16 0.007137962 0.005284016 0.10666667 0.010069226 Fold06.Rep2
17 0.006919438 0.005769231 0.16000000 0.011136891 Fold07.Rep2
18 0.007300785 0.008370536 0.20000000 0.016068559 Fold08.Rep2
19 0.005195732 0.004375000 0.09333333 0.008358209 Fold09.Rep2
20 0.006798395 0.007168459 0.18666667 0.013806706 Fold10.Rep2
21 0.007018360 0.006683375 0.21333333 0.012960713 Fold01.Rep3
22 0.006042583 0.004524887 0.09333333 0.008631319 Fold02.Rep3
23 0.006026520 0.003100089 0.09333333 0.006000857 Fold03.Rep3
24 0.006978450 0.005293551 0.14666667 0.010218300 Fold04.Rep3
25 0.006885837 0.004371585 0.10666667 0.008398950 Fold05.Rep3
26 0.006143282 0.005412720 0.16000000 0.010471204 Fold06.Rep3
27 0.006768186 0.005471956 0.10666667 0.010409889 Fold07.Rep3
28 0.006942771 0.007033248 0.14666667 0.013422819 Fold08.Rep3
29 0.006896470 0.006544503 0.13333333 0.012476606 Fold09.Rep3
30 0.007909869 0.007829181 0.14666667 0.014864865 Fold10.Rep3


[1] "+++++++++++++"
[1] "knn"
[1] "+++++++++++++"
[1] "**** finalModel ****"
9-nearest neighbor classification model
Training set class distribution:

  deceptive trustworthy 
       2250        3000 


[1] "**** results ****"
  k        AUC  Precision    Recall         F       AUCSD PrecisionSD
1 5 0.03746458 0.09249794 0.6813333 0.1620971 0.006612157  0.01511524
2 7 0.04394054 0.08487653 0.6951111 0.1508091 0.009267094  0.01337735
3 9 0.04896550 0.07791286 0.7133333 0.1399519 0.010092893  0.01313585
    RecallSD        FSD
1 0.06747555 0.02277842
2 0.06290377 0.02140714
3 0.06510822 0.02109079

[1] "**** resampledCM ****"
   cell1 cell2 cell3 cell4 k    Resample
1     55    20   464 11125 5 Fold01.Rep1
2     55    20   494 11095 7 Fold01.Rep1
3     56    19   506 11083 9 Fold01.Rep1
4     48    27   398 11191 5 Fold02.Rep1
5     52    23   552 11037 7 Fold02.Rep1
6     50    25   537 11052 9 Fold02.Rep1
7     52    23   499 11090 5 Fold03.Rep1
8     52    23   531 11058 7 Fold03.Rep1
9     57    18   824 10765 9 Fold03.Rep1
10    41    34   280 11309 5 Fold04.Rep1
11    43    32   605 10984 7 Fold04.Rep1
12    53    22   844 10745 9 Fold04.Rep1
13    56    19   728 10861 5 Fold05.Rep1
14    50    25   455 11134 7 Fold05.Rep1
15    56    19   753 10836 9 Fold05.Rep1
16    48    27   478 11110 5 Fold06.Rep1
17    49    26   534 11054 7 Fold06.Rep1
18    58    17   762 10826 9 Fold06.Rep1
19    58    17   766 10822 5 Fold07.Rep1
20    53    22   489 11099 7 Fold07.Rep1
21    58    17   776 10812 9 Fold07.Rep1
22    58    17   748 10841 5 Fold08.Rep1
23    52    23   641 10948 7 Fold08.Rep1
24    53    22   555 11034 9 Fold08.Rep1
25    49    26   468 11121 5 Fold09.Rep1
26    54    21   783 10806 7 Fold09.Rep1
27    49    26   562 11027 9 Fold09.Rep1
28    50    25   470 11119 5 Fold10.Rep1
29    50    25   526 11063 7 Fold10.Rep1
30    49    26   519 11070 9 Fold10.Rep1
31    50    25   452 11137 5 Fold01.Rep2
32    55    20   675 10914 7 Fold01.Rep2
33    50    25   522 11067 9 Fold01.Rep2
34    46    29   508 11081 5 Fold02.Rep2
35    46    29   537 11052 7 Fold02.Rep2
36    52    23   814 10775 9 Fold02.Rep2
37    52    23   444 11145 5 Fold03.Rep2
38    58    17   728 10861 7 Fold03.Rep2
39    56    19   778 10811 9 Fold03.Rep2
40    48    27   497 11092 5 Fold04.Rep2
41    46    29   508 11081 7 Fold04.Rep2
42    53    22   922 10667 9 Fold04.Rep2
43    47    28   450 11138 5 Fold05.Rep2
44    58    17   765 10823 7 Fold05.Rep2
45    47    28   549 11039 9 Fold05.Rep2
46    55    20   493 11095 5 Fold06.Rep2
47    57    18   516 11072 7 Fold06.Rep2
48    52    23   492 11096 9 Fold06.Rep2
49    55    20   500 11089 5 Fold07.Rep2
50    55    20   515 11074 7 Fold07.Rep2
51    60    15   808 10781 9 Fold07.Rep2
52    60    15   496 11093 5 Fold08.Rep2
53    59    16   555 11034 7 Fold08.Rep2
54    61    14   665 10924 9 Fold08.Rep2
55    55    20   592 10997 5 Fold09.Rep2
56    49    26   424 11165 7 Fold09.Rep2
57    58    17   799 10790 9 Fold09.Rep2
58    51    24   671 10918 5 Fold10.Rep2
59    53    22   850 10739 7 Fold10.Rep2
60    47    28   565 11024 9 Fold10.Rep2
61    62    13   772 10817 5 Fold01.Rep3
62    64    11   843 10746 7 Fold01.Rep3
63    64    11   872 10717 9 Fold01.Rep3
64    45    30   348 11240 5 Fold02.Rep3
65    51    24   469 11119 7 Fold02.Rep3
66    51    24   523 11065 9 Fold02.Rep3
67    55    20   430 11159 5 Fold03.Rep3
68    55    20   533 11056 7 Fold03.Rep3
69    58    17   497 11092 9 Fold03.Rep3
70    43    32   471 11118 5 Fold04.Rep3
71    44    31   501 11088 7 Fold04.Rep3
72    44    31   525 11064 9 Fold04.Rep3
73    47    28   449 11139 5 Fold05.Rep3
74    47    28   451 11137 7 Fold05.Rep3
75    48    27   532 11056 9 Fold05.Rep3
76    48    27   608 10981 5 Fold06.Rep3
77    48    27   641 10948 7 Fold06.Rep3
78    59    16   874 10715 9 Fold06.Rep3
79    52    23   470 11119 5 Fold07.Rep3
80    52    23   568 11021 7 Fold07.Rep3
81    52    23   576 11013 9 Fold07.Rep3
82    47    28   455 11134 5 Fold08.Rep3
83    48    27   428 11161 7 Fold08.Rep3
84    46    29   465 11124 9 Fold08.Rep3
85    47    28   444 11145 5 Fold09.Rep3
86    55    20   775 10814 7 Fold09.Rep3
87    54    21   762 10827 9 Fold09.Rep3
88    53    22   734 10855 5 Fold10.Rep3
89    54    21   468 11121 7 Fold10.Rep3
90    54    21   483 11106 9 Fold10.Rep3

[1] "**** resample ****"
          AUC  Precision    Recall         F    Resample
1  0.04308297 0.06469921 0.7600000 0.1192469 Fold03.Rep1
2  0.05095147 0.08517888 0.6666667 0.1510574 Fold02.Rep1
3  0.05632975 0.09964413 0.7466667 0.1758242 Fold01.Rep1
4  0.05030233 0.05908584 0.7066667 0.1090535 Fold04.Rep1
5  0.06812792 0.06714628 0.7466667 0.1232123 Fold03.Rep2
6  0.03759250 0.08019640 0.6533333 0.1428571 Fold09.Rep1
7  0.04093591 0.06922126 0.7466667 0.1266968 Fold05.Rep1
8  0.05927178 0.05435897 0.7066667 0.1009524 Fold04.Rep2
9  0.04638548 0.08626761 0.6533333 0.1524106 Fold10.Rep1
10 0.06748141 0.07073171 0.7733333 0.1296089 Fold06.Rep1
11 0.02637124 0.07885906 0.6266667 0.1400894 Fold05.Rep2
12 0.05030575 0.08741259 0.6666667 0.1545595 Fold01.Rep2
13 0.05039331 0.06954436 0.7733333 0.1276128 Fold07.Rep1
14 0.03780567 0.09558824 0.6933333 0.1680129 Fold06.Rep2
15 0.04325929 0.06004619 0.6933333 0.1105207 Fold02.Rep2
16 0.04328404 0.08717105 0.7066667 0.1551977 Fold08.Rep1
17 0.04784988 0.06912442 0.8000000 0.1272534 Fold07.Rep2
18 0.03570584 0.06323687 0.7866667 0.1170635 Fold06.Rep3
19 0.06356532 0.08885017 0.6800000 0.1571649 Fold02.Rep3
20 0.05111794 0.08402204 0.8133333 0.1523096 Fold08.Rep2
21 0.03971674 0.08280255 0.6933333 0.1479374 Fold07.Rep3
22 0.05876973 0.10450450 0.7733333 0.1841270 Fold03.Rep3
23 0.06817276 0.06767795 0.7733333 0.1244635 Fold09.Rep2
24 0.04234315 0.09001957 0.6133333 0.1569966 Fold08.Rep3
25 0.04447123 0.07732865 0.5866667 0.1366460 Fold04.Rep3
26 0.03938596 0.07679739 0.6266667 0.1368268 Fold10.Rep2
27 0.04955796 0.06617647 0.7200000 0.1212121 Fold09.Rep3
28 0.05335072 0.08275862 0.6400000 0.1465649 Fold05.Rep3
29 0.05312534 0.06837607 0.8533333 0.1266073 Fold01.Rep3
30 0.04995164 0.10055866 0.7200000 0.1764706 Fold10.Rep3


[1] "+++++++++++++"
[1] "adaboost"
[1] "+++++++++++++"
[1] "**** finalModel ****"
adaboost(formula = .outcome ~ ., data = dat, nIter = param$nIter)
.outcome ~ .
<environment: 0xd55cad8>
Dependent Variable: .outcome
No of trees:150
The weights of the trees are:1.3509861.2762520.84556610.83973670.56803830.58861780.4194730.40856190.33110860.31015060.26883070.24783070.22714810.21677320.1938480.18447240.16595140.16114470.15286760.14526010.13448880.12976270.12313870.12511780.11418930.11070250.10876970.10204490.099945180.09227910.087860370.085980090.081363810.080194980.07617020.076391780.073459750.070305830.068598930.06493860.063136920.060706310.06173680.0597190.057853620.056175660.054624620.052859220.05117330.049810440.050315520.048698180.047911520.047237660.045868980.043038810.042843780.041889320.041779960.041692350.040803970.040139170.039556350.03850930.037974220.037544980.037016250.035912920.035858720.035203080.035052030.034232270.033084020.032725310.032235280.031988490.031775410.031168420.030252940.029699490.029450580.029690260.029602330.029125870.028540520.028375370.028236550.02760470.028091710.02776660.02737540.026826480.026659570.026253410.025531670.024813340.026495610.02686670.026017280.025693250.025315610.025005040.024580780.02477530.024680140.024335970.024047750.023769310.024084210.023831420.023543630.02327240.023003930.022579030.02218980.0221780.021989410.021705050.021570720.021134940.021934820.02091040.021257950.021693470.021219390.020288930.020337680.020194730.019118720.019243220.018991320.018963450.018583010.018611030.017945960.01805650.018823440.018178440.017798460.017656470.017438280.017377230.017194160.017006530.016916330.016555330.016640.016516940.016147630.01614686

[1] "**** results ****"
  nIter        method        AUC  Precision    Recall         F      AUCSD
1    50   Adaboost.M1 0.43549962 0.41669457 0.6253333 0.4945442 0.08263241
2    50 Real adaboost 0.06968966 0.05971942 0.9835556 0.1122957 0.06816650
3   100   Adaboost.M1 0.43757571 0.45322779 0.6222222 0.5232374 0.06633614
4   100 Real adaboost 0.07111483 0.06448302 0.9511111 0.1197575 0.05238624
5   150   Adaboost.M1 0.45996358 0.20456022 0.6888889 0.3053846 0.08257004
6   150 Real adaboost 0.06214811 0.06467794 0.9591111 0.1201907 0.05680925
  PrecisionSD   RecallSD        FSD
1  0.09392894 0.05562325 0.08008035
2  0.01023373 0.04153135 0.01635317
3  0.05204727 0.05517880 0.04796718
4  0.01701869 0.09371569 0.02694102
5  0.08993942 0.06738312 0.08724343
6  0.01705349 0.08753295 0.02707711

[1] "**** resampledCM ****"
    cell1 cell2 cell3 cell4 nIter        method    Resample
1      48    27    72 11517    50   Adaboost.M1 Fold01.Rep1
2      49    26    64 11525   100   Adaboost.M1 Fold01.Rep1
3      57    18   219 11370   150   Adaboost.M1 Fold01.Rep1
4      74     1  1226 10363    50 Real adaboost Fold01.Rep1
5      75     0  1211 10378   100 Real adaboost Fold01.Rep1
6      75     0  1208 10381   150 Real adaboost Fold01.Rep1
7      49    26    81 11508    50   Adaboost.M1 Fold02.Rep1
8      49    26    58 11531   100   Adaboost.M1 Fold02.Rep1
9      53    22   212 11377   150   Adaboost.M1 Fold02.Rep1
10     75     0  1213 10376    50 Real adaboost Fold02.Rep1
11     75     0  1220 10369   100 Real adaboost Fold02.Rep1
12     75     0  1198 10391   150 Real adaboost Fold02.Rep1
13     45    30    66 11523    50   Adaboost.M1 Fold03.Rep1
14     47    28    64 11525   100   Adaboost.M1 Fold03.Rep1
15     47    28    50 11539   150   Adaboost.M1 Fold03.Rep1
16     75     0  1230 10359    50 Real adaboost Fold03.Rep1
17     75     0  1202 10387   100 Real adaboost Fold03.Rep1
18     57    18   454 11135   150 Real adaboost Fold03.Rep1
19     41    34    71 11518    50   Adaboost.M1 Fold04.Rep1
20     41    34    62 11527   100   Adaboost.M1 Fold04.Rep1
21     42    33   384 11205   150   Adaboost.M1 Fold04.Rep1
22     73     2  1268 10321    50 Real adaboost Fold04.Rep1
23     71     4  1262 10327   100 Real adaboost Fold04.Rep1
24     73     2  1261 10328   150 Real adaboost Fold04.Rep1
25     51    24   194 11395    50   Adaboost.M1 Fold05.Rep1
26     47    28    56 11533   100   Adaboost.M1 Fold05.Rep1
27     51    24   186 11403   150   Adaboost.M1 Fold05.Rep1
28     72     3  1197 10392    50 Real adaboost Fold05.Rep1
29     72     3  1194 10395   100 Real adaboost Fold05.Rep1
30     73     2  1174 10415   150 Real adaboost Fold05.Rep1
31     46    29    67 11521    50   Adaboost.M1 Fold06.Rep1
32     46    29    71 11517   100   Adaboost.M1 Fold06.Rep1
33     50    25   229 11359   150   Adaboost.M1 Fold06.Rep1
34     75     0  1176 10412    50 Real adaboost Fold06.Rep1
35     75     0  1181 10407   100 Real adaboost Fold06.Rep1
36     75     0  1181 10407   150 Real adaboost Fold06.Rep1
37     48    27    60 11528    50   Adaboost.M1 Fold07.Rep1
38     48    27    65 11523   100   Adaboost.M1 Fold07.Rep1
39     53    22   238 11350   150   Adaboost.M1 Fold07.Rep1
40     74     1  1162 10426    50 Real adaboost Fold07.Rep1
41     75     0  1167 10421   100 Real adaboost Fold07.Rep1
42     74     1  1165 10423   150 Real adaboost Fold07.Rep1
43     47    28    67 11522    50   Adaboost.M1 Fold08.Rep1
44     46    29    57 11532   100   Adaboost.M1 Fold08.Rep1
45     53    22   212 11377   150   Adaboost.M1 Fold08.Rep1
46     75     0  1153 10436    50 Real adaboost Fold08.Rep1
47     75     0  1162 10427   100 Real adaboost Fold08.Rep1
48     75     0  1167 10422   150 Real adaboost Fold08.Rep1
49     47    28    70 11519    50   Adaboost.M1 Fold09.Rep1
50     47    28    52 11537   100   Adaboost.M1 Fold09.Rep1
51     50    25   220 11369   150   Adaboost.M1 Fold09.Rep1
52     75     0  1258 10331    50 Real adaboost Fold09.Rep1
53     75     0  1270 10319   100 Real adaboost Fold09.Rep1
54     56    19   472 11117   150 Real adaboost Fold09.Rep1
55     47    28    43 11546    50   Adaboost.M1 Fold10.Rep1
56     47    28    57 11532   100   Adaboost.M1 Fold10.Rep1
57     49    26   218 11371   150   Adaboost.M1 Fold10.Rep1
58     74     1  1230 10359    50 Real adaboost Fold10.Rep1
59     62    13   928 10661   100 Real adaboost Fold10.Rep1
60     74     1  1223 10366   150 Real adaboost Fold10.Rep1
61     48    27    61 11528    50   Adaboost.M1 Fold01.Rep2
62     48    27    38 11551   100   Adaboost.M1 Fold01.Rep2
63     52    23   222 11367   150   Adaboost.M1 Fold01.Rep2
64     74     1  1191 10398    50 Real adaboost Fold01.Rep2
65     75     0  1195 10394   100 Real adaboost Fold01.Rep2
66     75     0  1194 10395   150 Real adaboost Fold01.Rep2
67     42    33    70 11519    50   Adaboost.M1 Fold02.Rep2
68     42    33    46 11543   100   Adaboost.M1 Fold02.Rep2
69     42    33    63 11526   150   Adaboost.M1 Fold02.Rep2
70     74     1  1193 10396    50 Real adaboost Fold02.Rep2
71     53    22   443 11146   100 Real adaboost Fold02.Rep2
72     74     1  1176 10413   150 Real adaboost Fold02.Rep2
73     46    29    53 11536    50   Adaboost.M1 Fold03.Rep2
74     46    29    61 11528   100   Adaboost.M1 Fold03.Rep2
75     53    22   249 11340   150   Adaboost.M1 Fold03.Rep2
76     74     1  1174 10415    50 Real adaboost Fold03.Rep2
77     74     1  1177 10412   100 Real adaboost Fold03.Rep2
78     74     1  1174 10415   150 Real adaboost Fold03.Rep2
79     42    33    94 11495    50   Adaboost.M1 Fold04.Rep2
80     42    33    63 11526   100   Adaboost.M1 Fold04.Rep2
81     48    27   244 11345   150   Adaboost.M1 Fold04.Rep2
82     75     0  1282 10307    50 Real adaboost Fold04.Rep2
83     75     0  1299 10290   100 Real adaboost Fold04.Rep2
84     75     0  1280 10309   150 Real adaboost Fold04.Rep2
85     48    27   196 11392    50   Adaboost.M1 Fold05.Rep2
86     45    30    40 11548   100   Adaboost.M1 Fold05.Rep2
87     60    15   497 11091   150   Adaboost.M1 Fold05.Rep2
88     75     0  1242 10346    50 Real adaboost Fold05.Rep2
89     75     0  1238 10350   100 Real adaboost Fold05.Rep2
90     75     0  1228 10360   150 Real adaboost Fold05.Rep2
91     52    23    32 11556    50   Adaboost.M1 Fold06.Rep2
92     52    23    57 11531   100   Adaboost.M1 Fold06.Rep2
93     57    18   256 11332   150   Adaboost.M1 Fold06.Rep2
94     75     0  1176 10412    50 Real adaboost Fold06.Rep2
95     75     0  1192 10396   100 Real adaboost Fold06.Rep2
96     75     0  1175 10413   150 Real adaboost Fold06.Rep2
97     52    23    76 11513    50   Adaboost.M1 Fold07.Rep2
98     52    23    62 11527   100   Adaboost.M1 Fold07.Rep2
99     61    14   517 11072   150   Adaboost.M1 Fold07.Rep2
100    75     0  1179 10410    50 Real adaboost Fold07.Rep2
101    75     0  1184 10405   100 Real adaboost Fold07.Rep2
102    61    14   483 11106   150 Real adaboost Fold07.Rep2
103    55    20    50 11539    50   Adaboost.M1 Fold08.Rep2
104    55    20    50 11539   100   Adaboost.M1 Fold08.Rep2
105    55    20    61 11528   150   Adaboost.M1 Fold08.Rep2
106    75     0  1206 10383    50 Real adaboost Fold08.Rep2
107    75     0  1213 10376   100 Real adaboost Fold08.Rep2
108    75     0  1208 10381   150 Real adaboost Fold08.Rep2
109    43    32    73 11516    50   Adaboost.M1 Fold09.Rep2
110    42    33    42 11547   100   Adaboost.M1 Fold09.Rep2
111    51    24   224 11365   150   Adaboost.M1 Fold09.Rep2
112    74     1  1204 10385    50 Real adaboost Fold09.Rep2
113    73     2  1198 10391   100 Real adaboost Fold09.Rep2
114    74     1  1196 10393   150 Real adaboost Fold09.Rep2
115    43    32    67 11522    50   Adaboost.M1 Fold10.Rep2
116    43    32    59 11530   100   Adaboost.M1 Fold10.Rep2
117    48    27   231 11358   150   Adaboost.M1 Fold10.Rep2
118    73     2  1220 10369    50 Real adaboost Fold10.Rep2
119    73     2  1231 10358   100 Real adaboost Fold10.Rep2
120    73     2  1217 10372   150 Real adaboost Fold10.Rep2
121    58    17    49 11540    50   Adaboost.M1 Fold01.Rep3
122    58    17    45 11544   100   Adaboost.M1 Fold01.Rep3
123    59    16   233 11356   150   Adaboost.M1 Fold01.Rep3
124    75     0  1214 10375    50 Real adaboost Fold01.Rep3
125    75     0  1206 10383   100 Real adaboost Fold01.Rep3
126    75     0  1204 10385   150 Real adaboost Fold01.Rep3
127    45    30    77 11511    50   Adaboost.M1 Fold02.Rep3
128    45    30    58 11530   100   Adaboost.M1 Fold02.Rep3
129    51    24   225 11363   150   Adaboost.M1 Fold02.Rep3
130    75     0  1274 10314    50 Real adaboost Fold02.Rep3
131    75     0  1265 10323   100 Real adaboost Fold02.Rep3
132    75     0  1275 10313   150 Real adaboost Fold02.Rep3
133    53    22    68 11521    50   Adaboost.M1 Fold03.Rep3
134    53    22    64 11525   100   Adaboost.M1 Fold03.Rep3
135    59    16   222 11367   150   Adaboost.M1 Fold03.Rep3
136    72     3  1172 10417    50 Real adaboost Fold03.Rep3
137    73     2  1173 10416   100 Real adaboost Fold03.Rep3
138    73     2  1165 10424   150 Real adaboost Fold03.Rep3
139    41    34    78 11511    50   Adaboost.M1 Fold04.Rep3
140    41    34    76 11513   100   Adaboost.M1 Fold04.Rep3
141    44    31   201 11388   150   Adaboost.M1 Fold04.Rep3
142    75     0  1174 10415    50 Real adaboost Fold04.Rep3
143    50    25   464 11125   100 Real adaboost Fold04.Rep3
144    50    25   460 11129   150 Real adaboost Fold04.Rep3
145    42    33    49 11539    50   Adaboost.M1 Fold05.Rep3
146    42    33    64 11524   100   Adaboost.M1 Fold05.Rep3
147    48    27   248 11340   150   Adaboost.M1 Fold05.Rep3
148    74     1  1203 10385    50 Real adaboost Fold05.Rep3
149    74     1  1184 10404   100 Real adaboost Fold05.Rep3
150    74     1  1192 10396   150 Real adaboost Fold05.Rep3
151    46    29    79 11510    50   Adaboost.M1 Fold06.Rep3
152    46    29    71 11518   100   Adaboost.M1 Fold06.Rep3
153    57    18   278 11311   150   Adaboost.M1 Fold06.Rep3
154    75     0  1240 10349    50 Real adaboost Fold06.Rep3
155    60    15   498 11091   100 Real adaboost Fold06.Rep3
156    75     0  1247 10342   150 Real adaboost Fold06.Rep3
157    48    27    46 11543    50   Adaboost.M1 Fold07.Rep3
158    47    28    40 11549   100   Adaboost.M1 Fold07.Rep3
159    52    23   234 11355   150   Adaboost.M1 Fold07.Rep3
160    75     0  1218 10371    50 Real adaboost Fold07.Rep3
161    75     0  1217 10372   100 Real adaboost Fold07.Rep3
162    75     0  1206 10383   150 Real adaboost Fold07.Rep3
163    46    29    35 11554    50   Adaboost.M1 Fold08.Rep3
164    46    29    50 11539   100   Adaboost.M1 Fold08.Rep3
165    46    29   197 11392   150   Adaboost.M1 Fold08.Rep3
166    73     2  1211 10378    50 Real adaboost Fold08.Rep3
167    73     2  1212 10377   100 Real adaboost Fold08.Rep3
168    73     2  1222 10367   150 Real adaboost Fold08.Rep3
169    44    31    85 11504    50   Adaboost.M1 Fold09.Rep3
170    44    31    57 11532   100   Adaboost.M1 Fold09.Rep3
171    48    27   277 11312   150   Adaboost.M1 Fold09.Rep3
172    75     0  1219 10370    50 Real adaboost Fold09.Rep3
173    74     1  1222 10367   100 Real adaboost Fold09.Rep3
174    75     0  1231 10358   150 Real adaboost Fold09.Rep3
175    44    31    41 11548    50   Adaboost.M1 Fold10.Rep3
176    44    31    62 11527   100   Adaboost.M1 Fold10.Rep3
177    54    21   194 11395   150   Adaboost.M1 Fold10.Rep3
178    58    17   454 11135    50 Real adaboost Fold10.Rep3
179    58    17   449 11140   100 Real adaboost Fold10.Rep3
180    75     0  1164 10425   150 Real adaboost Fold10.Rep3

[1] "**** resample ****"
         AUC  Precision    Recall         F    Resample
1  0.5434438 0.18213058 0.7066667 0.2896175 Fold07.Rep1
2  0.4932315 0.20652174 0.7600000 0.3247863 Fold01.Rep1
3  0.4890862 0.20000000 0.7066667 0.3117647 Fold08.Rep1
4  0.2392945 0.09859155 0.5600000 0.1676647 Fold04.Rep1
5  0.5252839 0.20000000 0.7066667 0.3117647 Fold02.Rep1
6  0.3176187 0.18978102 0.6933333 0.2979943 Fold01.Rep2
7  0.3889935 0.18518519 0.6666667 0.2898551 Fold09.Rep1
8  0.6048555 0.47413793 0.7333333 0.5759162 Fold08.Rep2
9  0.4209238 0.21518987 0.6800000 0.3269231 Fold05.Rep1
10 0.4504179 0.16216216 0.6400000 0.2587601 Fold05.Rep3
11 0.4898408 0.48453608 0.6266667 0.5465116 Fold03.Rep1
12 0.4022450 0.40000000 0.5600000 0.4666667 Fold02.Rep2
13 0.4624514 0.18352060 0.6533333 0.2865497 Fold10.Rep1
14 0.4649418 0.18545455 0.6800000 0.2914286 Fold09.Rep2
15 0.5792868 0.17921147 0.6666667 0.2824859 Fold06.Rep1
16 0.4004899 0.17014925 0.7600000 0.2780488 Fold06.Rep3
17 0.4754879 0.17959184 0.5866667 0.2750000 Fold04.Rep3
18 0.4718487 0.17549669 0.7066667 0.2811671 Fold03.Rep2
19 0.4983322 0.18478261 0.6800000 0.2905983 Fold02.Rep3
20 0.3963719 0.17204301 0.6400000 0.2711864 Fold10.Rep2
21 0.4619381 0.14769231 0.6400000 0.2400000 Fold09.Rep3
22 0.4607547 0.18181818 0.6933333 0.2880886 Fold07.Rep3
23 0.5730752 0.18210863 0.7600000 0.2938144 Fold06.Rep2
24 0.3430908 0.16438356 0.6400000 0.2615804 Fold04.Rep2
25 0.5394658 0.20996441 0.7866667 0.3314607 Fold03.Rep3
26 0.5690567 0.20205479 0.7866667 0.3215259 Fold01.Rep3
27 0.4276885 0.21774194 0.7200000 0.3343653 Fold10.Rep3
28 0.5171454 0.18930041 0.6133333 0.2893082 Fold08.Rep3
29 0.3583582 0.10553633 0.8133333 0.1868300 Fold07.Rep2
30 0.4338886 0.10771993 0.8000000 0.1898734 Fold05.Rep2


[1] "+++++++++++++"
[1] "rpart"
[1] "+++++++++++++"
[1] "**** finalModel ****"
n= 5250 

node), split, n, loss, yval, (yprob)
      * denotes terminal node

   1) root 5250 2250 trustworthy (0.428571429 0.571428571)  
     2) UTC_OFFSET< 0.7847501 3128 1334 deceptive (0.573529412 0.426470588)  
       4) UTC_OFFSET>=-0.6231961 965  107 deceptive (0.889119171 0.110880829)  
         8) TIMEZONE< 0.6841839 774    9 deceptive (0.988372093 0.011627907) *
         9) TIMEZONE>=0.6841839 191   93 trustworthy (0.486910995 0.513089005)  
          18) TIMEZONE>=0.6957069 110   17 deceptive (0.845454545 0.154545455)  
            36) FOLLOWERS_COUNT>=-0.09692312 96    3 deceptive (0.968750000 0.031250000) *
            37) FOLLOWERS_COUNT< -0.09692312 14    0 trustworthy (0.000000000 1.000000000) *
          19) TIMEZONE< 0.6957069 81    0 trustworthy (0.000000000 1.000000000) *
       5) UTC_OFFSET< -0.6231961 2163  936 trustworthy (0.432732316 0.567267684)  
        10) STATUS_COUNT>=-0.3567584 1823  887 deceptive (0.513439386 0.486560614)  
          20) STATUS_COUNT< -0.03049522 1293  456 deceptive (0.647331787 0.352668213)  
            40) FOLLOWERS_COUNT< -0.1212658 1099  276 deceptive (0.748862602 0.251137398)  
              80) FOLLOWERS_COUNT>=-0.1422635 996  175 deceptive (0.824297189 0.175702811)  
               160) FRIENDS_COUNT< -0.09898366 951  130 deceptive (0.863301788 0.136698212)  
                 320) TIMEZONE< 0.6661358 932  111 deceptive (0.880901288 0.119098712)  
                   640) TIMEZONE>=-0.4837786 775   58 deceptive (0.925161290 0.074838710)  
                    1280) UTC_OFFSET>=-1.469086 734   24 deceptive (0.967302452 0.032697548) *
                    1281) UTC_OFFSET< -1.469086 41    7 trustworthy (0.170731707 0.829268293) *
                   641) TIMEZONE< -0.4837786 157   53 deceptive (0.662420382 0.337579618)  
                    1282) UTC_OFFSET< -1.047268 77    0 deceptive (1.000000000 0.000000000) *
                    1283) UTC_OFFSET>=-1.047268 80   27 trustworthy (0.337500000 0.662500000)  
                      2566) TIMEZONE< -0.5000417 19    0 deceptive (1.000000000 0.000000000) *
                      2567) TIMEZONE>=-0.5000417 61    8 trustworthy (0.131147541 0.868852459) *
                 321) TIMEZONE>=0.6661358 19    0 trustworthy (0.000000000 1.000000000) *
               161) FRIENDS_COUNT>=-0.09898366 45    0 trustworthy (0.000000000 1.000000000) *
              81) FOLLOWERS_COUNT< -0.1422635 103    2 trustworthy (0.019417476 0.980582524) *
            41) FOLLOWERS_COUNT>=-0.1212658 194   14 trustworthy (0.072164948 0.927835052) *
          21) STATUS_COUNT>=-0.03049522 530   99 trustworthy (0.186792453 0.813207547)  
            42) LANGUAGE>=-0.1450991 55   10 deceptive (0.818181818 0.181818182) *
            43) LANGUAGE< -0.1450991 475   54 trustworthy (0.113684211 0.886315789)  
              86) STATUS_COUNT< 0.3014413 209   54 trustworthy (0.258373206 0.741626794)  
               172) TIMEZONE>=0.1032033 88   40 deceptive (0.545454545 0.454545455)  
                 344) TIMEZONE< 0.8085019 51    3 deceptive (0.941176471 0.058823529) *
                 345) TIMEZONE>=0.8085019 37    0 trustworthy (0.000000000 1.000000000) *
               173) TIMEZONE< 0.1032033 121    6 trustworthy (0.049586777 0.950413223) *
              87) STATUS_COUNT>=0.3014413 266    0 trustworthy (0.000000000 1.000000000) *
        11) STATUS_COUNT< -0.3567584 340    0 trustworthy (0.000000000 1.000000000) *
     3) UTC_OFFSET>=0.7847501 2122  456 trustworthy (0.214891612 0.785108388)  
       6) STATUS_COUNT>=0.7502138 213   99 trustworthy (0.464788732 0.535211268)  
        12) FRIENDS_COUNT>=0.03919872 134   35 deceptive (0.738805970 0.261194030)  
          24) UTC_OFFSET>=0.8676528 109   12 deceptive (0.889908257 0.110091743) *
          25) UTC_OFFSET< 0.8676528 25    2 trustworthy (0.080000000 0.920000000) *
        13) FRIENDS_COUNT< 0.03919872 79    0 trustworthy (0.000000000 1.000000000) *
       7) STATUS_COUNT< 0.7502138 1909  357 trustworthy (0.187008905 0.812991095)  
        14) FOLLOWERS_COUNT< -0.1401607 1067  281 trustworthy (0.263355201 0.736644799) *
        15) FOLLOWERS_COUNT>=-0.1401607 842   76 trustworthy (0.090261283 0.909738717)  
          30) STATUS_COUNT>=0.002259634 229   75 trustworthy (0.327510917 0.672489083)  
            60) FRIENDS_COUNT>=-0.09898366 127   52 deceptive (0.590551181 0.409448819)  
             120) FRIENDS_COUNT< 0.02913341 95   20 deceptive (0.789473684 0.210526316)  
               240) TIMEZONE>=-0.2447166 83    8 deceptive (0.903614458 0.096385542) *
               241) TIMEZONE< -0.2447166 12    0 trustworthy (0.000000000 1.000000000) *
             121) FRIENDS_COUNT>=0.02913341 32    0 trustworthy (0.000000000 1.000000000) *
            61) FRIENDS_COUNT< -0.09898366 102    0 trustworthy (0.000000000 1.000000000) *
          31) STATUS_COUNT< 0.002259634 613    1 trustworthy (0.001631321 0.998368679) *

[1] "**** results ****"
           cp        AUC  Precision    Recall         F      AUCSD PrecisionSD
1 0.004000000 0.08030389 0.09028733 0.5697778 0.1548931 0.02875233  0.02331365
2 0.004666667 0.07481379 0.08351436 0.5613333 0.1444500 0.02962016  0.02287294
3 0.004740741 0.07334747 0.08191880 0.5533333 0.1416373 0.02964799  0.02414866
    RecallSD        FSD
1 0.06914327 0.03547243
2 0.07545316 0.03528406
3 0.08187459 0.03707062

[1] "**** resampledCM ****"
            cp cell1 cell2 cell3 cell4    Resample
1  0.004000000    48    27   627 10962 Fold01.Rep1
2  0.004666667    48    27   649 10940 Fold01.Rep1
3  0.004740741    48    27   649 10940 Fold01.Rep1
4  0.004000000    46    29   428 11161 Fold02.Rep1
5  0.004666667    46    29   460 11129 Fold02.Rep1
6  0.004740741    46    29   460 11129 Fold02.Rep1
7  0.004000000    44    31   488 11101 Fold03.Rep1
8  0.004666667    44    31   488 11101 Fold03.Rep1
9  0.004740741    44    31   488 11101 Fold03.Rep1
10 0.004000000    41    34   622 10967 Fold04.Rep1
11 0.004666667    41    34   684 10905 Fold04.Rep1
12 0.004740741    33    42   614 10975 Fold04.Rep1
13 0.004000000    37    38   547 11042 Fold05.Rep1
14 0.004666667    37    38   599 10990 Fold05.Rep1
15 0.004740741    37    38   599 10990 Fold05.Rep1
16 0.004000000    40    35   512 11076 Fold06.Rep1
17 0.004666667    40    35   512 11076 Fold06.Rep1
18 0.004740741    40    35   512 11076 Fold06.Rep1
19 0.004000000    43    32   301 11287 Fold07.Rep1
20 0.004666667    43    32   442 11146 Fold07.Rep1
21 0.004740741    43    32   442 11146 Fold07.Rep1
22 0.004000000    41    34   287 11302 Fold08.Rep1
23 0.004666667    41    34   287 11302 Fold08.Rep1
24 0.004740741    41    34   287 11302 Fold08.Rep1
25 0.004000000    47    28   512 11077 Fold09.Rep1
26 0.004666667    44    31   479 11110 Fold09.Rep1
27 0.004740741    44    31   544 11045 Fold09.Rep1
28 0.004000000    38    37   292 11297 Fold10.Rep1
29 0.004666667    38    37   292 11297 Fold10.Rep1
30 0.004740741    38    37   292 11297 Fold10.Rep1
31 0.004000000    41    34   381 11208 Fold01.Rep2
32 0.004666667    43    32   638 10951 Fold01.Rep2
33 0.004740741    43    32   638 10951 Fold01.Rep2
34 0.004000000    40    35   377 11212 Fold02.Rep2
35 0.004666667    40    35   377 11212 Fold02.Rep2
36 0.004740741    41    34   531 11058 Fold02.Rep2
37 0.004000000    41    34   356 11233 Fold03.Rep2
38 0.004666667    41    34   356 11233 Fold03.Rep2
39 0.004740741    36    39   270 11319 Fold03.Rep2
40 0.004000000    40    35   635 10954 Fold04.Rep2
41 0.004666667    40    35   704 10885 Fold04.Rep2
42 0.004740741    34    41   660 10929 Fold04.Rep2
43 0.004000000    42    33   342 11246 Fold05.Rep2
44 0.004666667    42    33   342 11246 Fold05.Rep2
45 0.004740741    42    33   342 11246 Fold05.Rep2
46 0.004000000    47    28   575 11013 Fold06.Rep2
47 0.004666667    47    28   575 11013 Fold06.Rep2
48 0.004740741    47    28   628 10960 Fold06.Rep2
49 0.004000000    50    25   454 11135 Fold07.Rep2
50 0.004666667    44    31   477 11112 Fold07.Rep2
51 0.004740741    44    31   477 11112 Fold07.Rep2
52 0.004000000    50    25   614 10975 Fold08.Rep2
53 0.004666667    50    25   679 10910 Fold08.Rep2
54 0.004740741    50    25   679 10910 Fold08.Rep2
55 0.004000000    42    33   506 11083 Fold09.Rep2
56 0.004666667    34    41   477 11112 Fold09.Rep2
57 0.004740741    34    41   477 11112 Fold09.Rep2
58 0.004000000    43    32   449 11140 Fold10.Rep2
59 0.004666667    43    32   487 11102 Fold10.Rep2
60 0.004740741    43    32   583 11006 Fold10.Rep2
61 0.004000000    56    19   320 11269 Fold01.Rep3
62 0.004666667    56    19   320 11269 Fold01.Rep3
63 0.004740741    56    19   320 11269 Fold01.Rep3
64 0.004000000    38    37   492 11096 Fold02.Rep3
65 0.004666667    38    37   492 11096 Fold02.Rep3
66 0.004740741    38    37   492 11096 Fold02.Rep3
67 0.004000000    52    23   489 11100 Fold03.Rep3
68 0.004666667    52    23   489 11100 Fold03.Rep3
69 0.004740741    52    23   489 11100 Fold03.Rep3
70 0.004000000    39    36   615 10974 Fold04.Rep3
71 0.004666667    39    36   615 10974 Fold04.Rep3
72 0.004740741    39    36   615 10974 Fold04.Rep3
73 0.004000000    29    46   540 11048 Fold05.Rep3
74 0.004666667    29    46   540 11048 Fold05.Rep3
75 0.004740741    29    46   540 11048 Fold05.Rep3
76 0.004000000    43    32   439 11150 Fold06.Rep3
77 0.004666667    43    32   515 11074 Fold06.Rep3
78 0.004740741    43    32   515 11074 Fold06.Rep3
79 0.004000000    41    34   280 11309 Fold07.Rep3
80 0.004666667    41    34   333 11256 Fold07.Rep3
81 0.004740741    41    34   333 11256 Fold07.Rep3
82 0.004000000    41    34   359 11230 Fold08.Rep3
83 0.004666667    46    29   591 10998 Fold08.Rep3
84 0.004740741    46    29   591 10998 Fold08.Rep3
85 0.004000000    39    36   436 11153 Fold09.Rep3
86 0.004666667    30    45   387 11202 Fold09.Rep3
87 0.004740741    30    45   387 11202 Fold09.Rep3
88 0.004000000    43    32   375 11214 Fold10.Rep3
89 0.004666667    43    32   375 11214 Fold10.Rep3
90 0.004740741    43    32   375 11214 Fold10.Rep3

[1] "**** resample ****"
          AUC  Precision    Recall          F    Resample
1  0.05505441 0.07111111 0.6400000 0.12800000 Fold01.Rep1
2  0.04370482 0.06184012 0.5466667 0.11111111 Fold04.Rep1
3  0.07360678 0.08270677 0.5866667 0.14497529 Fold03.Rep1
4  0.08318186 0.09704641 0.6133333 0.16757741 Fold02.Rep1
5  0.05638385 0.06335616 0.4933333 0.11229135 Fold05.Rep1
6  0.08884865 0.05925926 0.5333333 0.10666667 Fold04.Rep2
7  0.08303153 0.11515152 0.5066667 0.18765432 Fold10.Rep1
8  0.05195712 0.07246377 0.5333333 0.12759171 Fold06.Rep1
9  0.10013385 0.10937500 0.5600000 0.18300654 Fold05.Rep2
10 0.07924195 0.09715640 0.5466667 0.16498994 Fold01.Rep2
11 0.07877477 0.12500000 0.5733333 0.20525060 Fold07.Rep1
12 0.17145339 0.07556270 0.6266667 0.13486370 Fold06.Rep2
13 0.07235251 0.09592326 0.5333333 0.16260163 Fold02.Rep2
14 0.09416644 0.12500000 0.5466667 0.20347395 Fold08.Rep1
15 0.10966346 0.09920635 0.6666667 0.17271157 Fold07.Rep2
16 0.08517197 0.10327456 0.5466667 0.17372881 Fold03.Rep2
17 0.13016643 0.08407871 0.6266667 0.14826498 Fold09.Rep1
18 0.05878043 0.07530120 0.6666667 0.13531800 Fold08.Rep2
19 0.10205048 0.12772586 0.5466667 0.20707071 Fold07.Rep3
20 0.07238585 0.09611830 0.6933333 0.16883117 Fold03.Rep3
21 0.06198828 0.07664234 0.5600000 0.13483146 Fold09.Rep2
22 0.08799665 0.10250000 0.5466667 0.17263158 Fold08.Rep3
23 0.04355178 0.05963303 0.5200000 0.10699588 Fold04.Rep3
24 0.09822497 0.08739837 0.5733333 0.15167549 Fold10.Rep2
25 0.05177594 0.08210526 0.5200000 0.14181818 Fold09.Rep3
26 0.03880061 0.05096661 0.3866667 0.09006211 Fold05.Rep3
27 0.11915903 0.14893617 0.7466667 0.24833703 Fold01.Rep3
28 0.09023054 0.10287081 0.5733333 0.17444219 Fold10.Rep3
29 0.07760621 0.08921162 0.5733333 0.15439856 Fold06.Rep3
30 0.04967218 0.07169811 0.5066667 0.12561983 Fold02.Rep3


[1] "+++++++++++++"
[1] "nnet"
[1] "+++++++++++++"
[1] "**** finalModel ****"
a 8-5-1 network with 51 weights
inputs: PROFILE_IMAGE LANGUAGE FRIENDS_COUNT FOLLOWERS_COUNT STATUS_COUNT LISTED_COUNT TIMEZONE UTC_OFFSET 
output(s): .outcome 
options were - entropy fitting 

[1] "**** results ****"
  size decay         AUC   Precision    Recall          F       AUCSD
1    1 0e+00 0.006296931 0.010737092 0.6373333 0.02108101 0.001985087
2    1 1e-04 0.006156938 0.010242201 0.5560000 0.02010530 0.001917684
3    1 1e-01 0.007903450 0.008198068 0.4173333 0.01605784 0.001214948
4    3 0e+00 0.023684919 0.018751440 0.4537778 0.03568920 0.016099332
5    3 1e-04 0.043413961 0.020554043 0.5577778 0.03925431 0.058657245
6    3 1e-01 0.025880743 0.018274325 0.4497778 0.03496133 0.015002167
7    5 0e+00 0.065376621 0.037019982 0.6062222 0.06860535 0.037451497
8    5 1e-04 0.064838642 0.038535596 0.5595556 0.07038449 0.034227230
9    5 1e-01 0.054349301 0.038230852 0.5488889 0.07124835 0.020229140
  PrecisionSD   RecallSD         FSD
1 0.002494550 0.14620198 0.004799521
2 0.002382452 0.14827333 0.004602546
3 0.001277522 0.09151932 0.002441085
4 0.006463261 0.19553588 0.012020374
5 0.007272626 0.20578852 0.013503029
6 0.007722352 0.19340651 0.014500261
7 0.014092662 0.14461399 0.023008329
8 0.018507830 0.15932745 0.029131704
9 0.009300377 0.08691094 0.016464124

[1] "**** resampledCM ****"
    cell1 cell2 cell3 cell4 size decay    Resample
1      35    40  3130  8459    1 0e+00 Fold01.Rep1
2      52    23  1814  9775    3 0e+00 Fold01.Rep1
3      41    34   634 10955    5 0e+00 Fold01.Rep1
4      33    42  4332  7257    1 1e-01 Fold01.Rep1
5      30    45  1439 10150    3 1e-01 Fold01.Rep1
6      37    38  1291 10298    5 1e-01 Fold01.Rep1
7      34    41  2544  9045    1 1e-04 Fold01.Rep1
8      67     8  2083  9506    3 1e-04 Fold01.Rep1
9      45    30   680 10909    5 1e-04 Fold01.Rep1
10     60    15  6365  5224    1 0e+00 Fold02.Rep1
11     18    57   700 10889    3 0e+00 Fold02.Rep1
12     41    34  2215  9374    5 0e+00 Fold02.Rep1
13     33    42  4506  7083    1 1e-01 Fold02.Rep1
14     40    35  2129  9460    3 1e-01 Fold02.Rep1
15     33    42   867 10722    5 1e-01 Fold02.Rep1
16     42    33  2988  8601    1 1e-04 Fold02.Rep1
17     58    17  3143  8446    3 1e-04 Fold02.Rep1
18     56    19  2161  9428    5 1e-04 Fold02.Rep1
19     69     6  5664  5925    1 0e+00 Fold03.Rep1
20     44    31  2121  9468    3 0e+00 Fold03.Rep1
21     43    32  1435 10154    5 0e+00 Fold03.Rep1
22     34    41  4381  7208    1 1e-01 Fold03.Rep1
23     19    56  1969  9620    3 1e-01 Fold03.Rep1
24     29    46  1456 10133    5 1e-01 Fold03.Rep1
25     42    33  5332  6257    1 1e-04 Fold03.Rep1
26     31    44  1473 10116    3 1e-04 Fold03.Rep1
27     22    53   690 10899    5 1e-04 Fold03.Rep1
28     41    34  2969  8620    1 0e+00 Fold04.Rep1
29     30    45  1267 10322    3 0e+00 Fold04.Rep1
30     58    17  1397 10192    5 0e+00 Fold04.Rep1
31     27    48  4181  7408    1 1e-01 Fold04.Rep1
32     28    47  1865  9724    3 1e-01 Fold04.Rep1
33     40    35   797 10792    5 1e-01 Fold04.Rep1
34     44    31  4025  7564    1 1e-04 Fold04.Rep1
35     13    62   626 10963    3 1e-04 Fold04.Rep1
36     35    40   982 10607    5 1e-04 Fold04.Rep1
37     60    15  7213  4376    1 0e+00 Fold05.Rep1
38     49    26  2718  8871    3 0e+00 Fold05.Rep1
39     46    29  1121 10468    5 0e+00 Fold05.Rep1
40     23    52  2926  8663    1 1e-01 Fold05.Rep1
41     37    38  1120 10469    3 1e-01 Fold05.Rep1
42     44    31  1214 10375    5 1e-01 Fold05.Rep1
43     42    33  3917  7672    1 1e-04 Fold05.Rep1
44     36    39  2120  9469    3 1e-04 Fold05.Rep1
45     39    36  1141 10448    5 1e-04 Fold05.Rep1
46     40    35  3950  7638    1 0e+00 Fold06.Rep1
47     24    51  1311 10277    3 0e+00 Fold06.Rep1
48     32    43   771 10817    5 0e+00 Fold06.Rep1
49     22    53  2227  9361    1 1e-01 Fold06.Rep1
50     23    52  2235  9353    3 1e-01 Fold06.Rep1
51     42    33   799 10789    5 1e-01 Fold06.Rep1
52     54    21  4918  6670    1 1e-04 Fold06.Rep1
53     71     4  2989  8599    3 1e-04 Fold06.Rep1
54     39    36  1643  9945    5 1e-04 Fold06.Rep1
55     60    15  5327  6261    1 0e+00 Fold07.Rep1
56     26    49  2435  9153    3 0e+00 Fold07.Rep1
57     65    10  1614  9974    5 0e+00 Fold07.Rep1
58     34    41  4463  7125    1 1e-01 Fold07.Rep1
59     66     9  2208  9380    3 1e-01 Fold07.Rep1
60     44    31  1154 10434    5 1e-01 Fold07.Rep1
61     58    17  4900  6688    1 1e-04 Fold07.Rep1
62     55    20  3508  8080    3 1e-04 Fold07.Rep1
63     44    31   920 10668    5 1e-04 Fold07.Rep1
64     44    31  2871  8718    1 0e+00 Fold08.Rep1
65     26    49  1577 10012    3 0e+00 Fold08.Rep1
66     42    33  1263 10326    5 0e+00 Fold08.Rep1
67     27    48  2940  8649    1 1e-01 Fold08.Rep1
68     21    54  1293 10296    3 1e-01 Fold08.Rep1
69     33    42   957 10632    5 1e-01 Fold08.Rep1
70     53    22  4927  6662    1 1e-04 Fold08.Rep1
71     48    27  2060  9529    3 1e-04 Fold08.Rep1
72     37    38  1281 10308    5 1e-04 Fold08.Rep1
73     56    19  7278  4311    1 0e+00 Fold09.Rep1
74     17    58  1216 10373    3 0e+00 Fold09.Rep1
75     44    31   994 10595    5 0e+00 Fold09.Rep1
76     32    43  4289  7300    1 1e-01 Fold09.Rep1
77     29    46  1457 10132    3 1e-01 Fold09.Rep1
78     43    32  1089 10500    5 1e-01 Fold09.Rep1
79     57    18  5298  6291    1 1e-04 Fold09.Rep1
80     45    30  2069  9520    3 1e-04 Fold09.Rep1
81     54    21  1629  9960    5 1e-04 Fold09.Rep1
82     47    28  5492  6097    1 0e+00 Fold10.Rep1
83     26    49  1632  9957    3 0e+00 Fold10.Rep1
84     46    29  1354 10235    5 0e+00 Fold10.Rep1
85     36    39  5260  6329    1 1e-01 Fold10.Rep1
86     32    43  1575 10014    3 1e-01 Fold10.Rep1
87     44    31  1377 10212    5 1e-01 Fold10.Rep1
88     52    23  4912  6677    1 1e-04 Fold10.Rep1
89     45    30  2327  9262    3 1e-04 Fold10.Rep1
90     38    37  1682  9907    5 1e-04 Fold10.Rep1
91     69     6  6518  5071    1 0e+00 Fold01.Rep2
92     32    43  1847  9742    3 0e+00 Fold01.Rep2
93     57    18  1857  9732    5 0e+00 Fold01.Rep2
94     36    39  4393  7196    1 1e-01 Fold01.Rep2
95     40    35  2741  8848    3 1e-01 Fold01.Rep2
96     43    32   921 10668    5 1e-01 Fold01.Rep2
97     58    17  5705  5884    1 1e-04 Fold01.Rep2
98     27    48  2434  9155    3 1e-04 Fold01.Rep2
99     34    41   905 10684    5 1e-04 Fold01.Rep2
100    52    23  6308  5281    1 0e+00 Fold02.Rep2
101    20    55   746 10843    3 0e+00 Fold02.Rep2
102    61    14  1840  9749    5 0e+00 Fold02.Rep2
103    34    41  4425  7164    1 1e-01 Fold02.Rep2
104    15    60  1949  9640    3 1e-01 Fold02.Rep2
105    22    53   805 10784    5 1e-01 Fold02.Rep2
106     0    75     0 11589    1 1e-04 Fold02.Rep2
107    45    30  1752  9837    3 1e-04 Fold02.Rep2
108    58    17  1528 10061    5 1e-04 Fold02.Rep2
109    55    20  5394  6195    1 0e+00 Fold03.Rep2
110    50    25  4326  7263    3 0e+00 Fold03.Rep2
111    50    25  1651  9938    5 0e+00 Fold03.Rep2
112    35    40  4226  7363    1 1e-01 Fold03.Rep2
113    19    56  1721  9868    3 1e-01 Fold03.Rep2
114    56    19  1637  9952    5 1e-01 Fold03.Rep2
115    37    38  4457  7132    1 1e-04 Fold03.Rep2
116    36    39  1576 10013    3 1e-04 Fold03.Rep2
117    49    26   700 10889    5 1e-04 Fold03.Rep2
118    27    48  4220  7369    1 0e+00 Fold04.Rep2
119    46    29  3197  8392    3 0e+00 Fold04.Rep2
120    50    25  1342 10247    5 0e+00 Fold04.Rep2
121    24    51  2389  9200    1 1e-01 Fold04.Rep2
122    64    11  2259  9330    3 1e-01 Fold04.Rep2
123    39    36  1591  9998    5 1e-01 Fold04.Rep2
124    46    29  2872  8717    1 1e-04 Fold04.Rep2
125    17    58   806 10783    3 1e-04 Fold04.Rep2
126    31    44  1456 10133    5 1e-04 Fold04.Rep2
127    46    29  5392  6196    1 0e+00 Fold05.Rep2
128    18    57  1409 10179    3 0e+00 Fold05.Rep2
129    32    43  1114 10474    5 0e+00 Fold05.Rep2
130    35    40  4633  6955    1 1e-01 Fold05.Rep2
131    25    50  2352  9236    3 1e-01 Fold05.Rep2
132    44    31   820 10768    5 1e-01 Fold05.Rep2
133    41    34  3103  8485    1 1e-04 Fold05.Rep2
134    42    33  2626  8962    3 1e-04 Fold05.Rep2
135    47    28   980 10608    5 1e-04 Fold05.Rep2
136    46    29  5748  5840    1 0e+00 Fold06.Rep2
137    40    35  1367 10221    3 0e+00 Fold06.Rep2
138    45    30   519 11069    5 0e+00 Fold06.Rep2
139    36    39  4243  7345    1 1e-01 Fold06.Rep2
140    61    14  2282  9306    3 1e-01 Fold06.Rep2
141    44    31   808 10780    5 1e-01 Fold06.Rep2
142    40    35  4388  7200    1 1e-04 Fold06.Rep2
143    37    38  3966  7622    3 1e-04 Fold06.Rep2
144    49    26   597 10991    5 1e-04 Fold06.Rep2
145    36    39  4423  7166    1 0e+00 Fold07.Rep2
146    45    30  2175  9414    3 0e+00 Fold07.Rep2
147    47    28   805 10784    5 0e+00 Fold07.Rep2
148    52    23  5945  5644    1 1e-01 Fold07.Rep2
149    23    52  2078  9511    3 1e-01 Fold07.Rep2
150    40    35  1183 10406    5 1e-01 Fold07.Rep2
151    46    29  3360  8229    1 1e-04 Fold07.Rep2
152    49    26  2734  8855    3 1e-04 Fold07.Rep2
153    57    18  1603  9986    5 1e-04 Fold07.Rep2
154    48    27  5479  6110    1 0e+00 Fold08.Rep2
155    22    53   835 10754    3 0e+00 Fold08.Rep2
156    48    27  1697  9892    5 0e+00 Fold08.Rep2
157    39    36  4327  7262    1 1e-01 Fold08.Rep2
158    25    50  2426  9163    3 1e-01 Fold08.Rep2
159    39    36   707 10882    5 1e-01 Fold08.Rep2
160    46    29  5092  6497    1 1e-04 Fold08.Rep2
161    60    15  2329  9260    3 1e-04 Fold08.Rep2
162    48    27  1142 10447    5 1e-04 Fold08.Rep2
163    34    41  3403  8186    1 0e+00 Fold09.Rep2
164    19    56   952 10637    3 0e+00 Fold09.Rep2
165    17    58   228 11361    5 0e+00 Fold09.Rep2
166    20    55  2994  8595    1 1e-01 Fold09.Rep2
167    25    50  2395  9194    3 1e-01 Fold09.Rep2
168    41    34  1114 10475    5 1e-01 Fold09.Rep2
169    26    49  4434  7155    1 1e-04 Fold09.Rep2
170    20    55   736 10853    3 1e-04 Fold09.Rep2
171    59    16  1464 10125    5 1e-04 Fold09.Rep2
172    43    32  2910  8679    1 0e+00 Fold10.Rep2
173    19    56  1487 10102    3 0e+00 Fold10.Rep2
174    41    34   703 10886    5 0e+00 Fold10.Rep2
175    24    51  2531  9058    1 1e-01 Fold10.Rep2
176    40    35  1341 10248    3 1e-01 Fold10.Rep2
177    41    34   715 10874    5 1e-01 Fold10.Rep2
178    40    35  5115  6474    1 1e-04 Fold10.Rep2
179    56    19  2503  9086    3 1e-04 Fold10.Rep2
180    22    53   949 10640    5 1e-04 Fold10.Rep2
181    51    24  4823  6766    1 0e+00 Fold01.Rep3
182    35    40  2359  9230    3 0e+00 Fold01.Rep3
183    46    29  1268 10321    5 0e+00 Fold01.Rep3
184    31    44  3087  8502    1 1e-01 Fold01.Rep3
185    23    52   711 10878    3 1e-01 Fold01.Rep3
186    52    23  1324 10265    5 1e-01 Fold01.Rep3
187    51    24  5134  6455    1 1e-04 Fold01.Rep3
188    50    25  3107  8482    3 1e-04 Fold01.Rep3
189    59    16  2236  9353    5 1e-04 Fold01.Rep3
190    46    29  5124  6464    1 0e+00 Fold02.Rep3
191    59    16  1818  9770    3 0e+00 Fold02.Rep3
192    49    26  1355 10233    5 0e+00 Fold02.Rep3
193    27    48  4194  7394    1 1e-01 Fold02.Rep3
194    23    52  2405  9183    3 1e-01 Fold02.Rep3
195    43    32   861 10727    5 1e-01 Fold02.Rep3
196    38    37  2907  8681    1 1e-04 Fold02.Rep3
197     9    66   588 11000    3 1e-04 Fold02.Rep3
198    44    31  1587 10001    5 1e-04 Fold02.Rep3
199    51    24  4849  6740    1 0e+00 Fold03.Rep3
200    52    23  1615  9974    3 0e+00 Fold03.Rep3
201    63    12  2622  8967    5 0e+00 Fold03.Rep3
202    43    32  4315  7274    1 1e-01 Fold03.Rep3
203    42    33  2081  9508    3 1e-01 Fold03.Rep3
204    52    23  1136 10453    5 1e-01 Fold03.Rep3
205    36    39  2917  8672    1 1e-04 Fold03.Rep3
206    50    25  3372  8217    3 1e-04 Fold03.Rep3
207    59    16  1491 10098    5 1e-04 Fold03.Rep3
208    72     3  6220  5369    1 0e+00 Fold04.Rep3
209    61    14  2903  8686    3 0e+00 Fold04.Rep3
210    35    40  1181 10408    5 0e+00 Fold04.Rep3
211    30    45  3128  8461    1 1e-01 Fold04.Rep3
212    63    12  2264  9325    3 1e-01 Fold04.Rep3
213    37    38  1312 10277    5 1e-01 Fold04.Rep3
214    38    37  4985  6604    1 1e-04 Fold04.Rep3
215    32    43   881 10708    3 1e-04 Fold04.Rep3
216    19    56   297 11292    5 1e-04 Fold04.Rep3
217    43    32  2826  8762    1 0e+00 Fold05.Rep3
218    60    15  3760  7828    3 0e+00 Fold05.Rep3
219    38    37  1072 10516    5 0e+00 Fold05.Rep3
220    38    37  5396  6192    1 1e-01 Fold05.Rep3
221    24    51  2541  9047    3 1e-01 Fold05.Rep3
222    38    37   789 10799    5 1e-01 Fold05.Rep3
223    32    43  4429  7159    1 1e-04 Fold05.Rep3
224    39    36   943 10645    3 1e-04 Fold05.Rep3
225    51    24  1335 10253    5 1e-04 Fold05.Rep3
226    40    35  2915  8674    1 0e+00 Fold06.Rep3
227    19    56   805 10784    3 0e+00 Fold06.Rep3
228    35    40  1424 10165    5 0e+00 Fold06.Rep3
229    27    48  4130  7459    1 1e-01 Fold06.Rep3
230    29    46  1530 10059    3 1e-01 Fold06.Rep3
231    43    32  1172 10417    5 1e-01 Fold06.Rep3
232    43    32  5009  6580    1 1e-04 Fold06.Rep3
233    60    15  1873  9716    3 1e-04 Fold06.Rep3
234    35    40  2517  9072    5 1e-04 Fold06.Rep3
235    38    37  2962  8627    1 0e+00 Fold07.Rep3
236    17    58  1707  9882    3 0e+00 Fold07.Rep3
237    56    19  2008  9581    5 0e+00 Fold07.Rep3
238    26    49  2928  8661    1 1e-01 Fold07.Rep3
239    35    40  1392 10197    3 1e-01 Fold07.Rep3
240    42    33  1215 10374    5 1e-01 Fold07.Rep3
241    38    37  3314  8275    1 1e-04 Fold07.Rep3
242    41    34  2812  8777    3 1e-04 Fold07.Rep3
243    24    51   213 11376    5 1e-04 Fold07.Rep3
244    38    37  3276  8313    1 0e+00 Fold08.Rep3
245    21    54  2086  9503    3 0e+00 Fold08.Rep3
246    43    32  1718  9871    5 0e+00 Fold08.Rep3
247    30    45  4108  7481    1 1e-01 Fold08.Rep3
248    55    20  2261  9328    3 1e-01 Fold08.Rep3
249    42    33  1270 10319    5 1e-01 Fold08.Rep3
250    37    38  4789  6800    1 1e-04 Fold08.Rep3
251    31    44  2577  9012    3 1e-04 Fold08.Rep3
252    32    43  1189 10400    5 1e-04 Fold08.Rep3
253    42    33  2981  8608    1 0e+00 Fold09.Rep3
254    31    44  1498 10091    3 0e+00 Fold09.Rep3
255    31    44  1212 10377    5 0e+00 Fold09.Rep3
256    23    52  2748  8841    1 1e-01 Fold09.Rep3
257    29    46  2479  9110    3 1e-01 Fold09.Rep3
258    44    31  1259 10330    5 1e-01 Fold09.Rep3
259    43    32  4501  7088    1 1e-04 Fold09.Rep3
260    53    22  2024  9565    3 1e-04 Fold09.Rep3
261    41    34   859 10730    5 1e-04 Fold09.Rep3
262    45    30  2964  8625    1 0e+00 Fold10.Rep3
263    43    32  4436  7153    3 0e+00 Fold10.Rep3
264    62    13  1553 10036    5 0e+00 Fold10.Rep3
265    28    47  2397  9192    1 1e-01 Fold10.Rep3
266    27    48  1033 10556    3 1e-01 Fold10.Rep3
267    44    31   862 10727    5 1e-01 Fold10.Rep3
268    37    38  4841  6748    1 1e-04 Fold10.Rep3
269    32    43  3211  8378    3 1e-04 Fold10.Rep3
270    32    43  1105 10484    5 1e-04 Fold10.Rep3

[1] "**** resample ****"
          AUC  Precision    Recall          F    Resample
1  0.07904923 0.02713178 0.7466667 0.05236092 Fold07.Rep3
2  0.05147500 0.03490028 0.6533333 0.06626099 Fold02.Rep3
3  0.03558286 0.02346369 0.8400000 0.04565217 Fold03.Rep3
4  0.04393370 0.02750716 0.6400000 0.05274725 Fold08.Rep2
5  0.04544446 0.06938776 0.2266667 0.10625000 Fold09.Rep2
6  0.02411448 0.02441794 0.5733333 0.04684096 Fold08.Rep3
7  0.04785038 0.02939447 0.6666667 0.05630631 Fold03.Rep2
8  0.05637304 0.03591954 0.6666667 0.06816633 Fold04.Rep2
9  0.03492758 0.02792321 0.4266667 0.05241605 Fold05.Rep2
10 0.03376436 0.02878289 0.4666667 0.05422153 Fold04.Rep3
11 0.08486467 0.04238921 0.5866667 0.07906559 Fold09.Rep1
12 0.03933959 0.03285714 0.6133333 0.06237288 Fold10.Rep1
13 0.08781150 0.02978056 0.7600000 0.05731523 Fold01.Rep2
14 0.06548131 0.05510753 0.5466667 0.10012210 Fold10.Rep2
15 0.03303836 0.02493966 0.4133333 0.04704097 Fold09.Rep3
16 0.12024207 0.03985056 0.4266667 0.07289294 Fold06.Rep1
17 0.13275601 0.03871352 0.8666667 0.07411631 Fold07.Rep1
18 0.19688606 0.07978723 0.6000000 0.14084507 Fold06.Rep2
19 0.04778829 0.03423423 0.5066667 0.06413502 Fold05.Rep3
20 0.04593652 0.03941731 0.6133333 0.07407407 Fold05.Rep1
21 0.05207039 0.02909337 0.5733333 0.05537669 Fold03.Rep1
22 0.04913120 0.03208837 0.8133333 0.06174089 Fold02.Rep2
23 0.10474280 0.03500761 0.6133333 0.06623470 Fold01.Rep3
24 0.09383635 0.03839009 0.8266667 0.07337278 Fold10.Rep3
25 0.02249021 0.01817376 0.5466667 0.03517804 Fold02.Rep1
26 0.06808215 0.03218391 0.5600000 0.06086957 Fold08.Rep1
27 0.09789766 0.05516432 0.6266667 0.10140237 Fold07.Rep2
28 0.03984844 0.02398903 0.4666667 0.04563233 Fold06.Rep3
29 0.05944775 0.06074074 0.5466667 0.10933333 Fold01.Rep1
30 0.06709224 0.03986254 0.7733333 0.07581699 Fold04.Rep1


[1] "Query loading run time"
[1] "=============="
   user  system elapsed 
 20.316   0.168  21.948 

[1] "Models run time"
[1] "=============="
    user   system  elapsed 
6363.700   95.216 1517.357 
